
\data\
ngram 1=3430
ngram 2=19263
ngram 3=4705

\1-grams:
-4.135726	'dan	-0.1268496
-4.135726	'japanawa	-0.1266692
-4.135726	'mutum	-0.1268045
-2.645204	'yan	-0.2297757
-4.135726	'yan'uwa	-0.1063739
-4.135726	'yancin	-0.1063739
-4.135726	'yansanda	-0.1169516
-4.135726	'yar	-0.1265202
-4.135726	'yaranmu	-0.1194359
-4.135726	'zai	-0.1268673
-1.087829	</s>
-99	<s>	-0.1827495
-1.644637	a	-0.2378479
-4.135726	abada	-0.08989742
-4.02511	abdullah	-0.1193942
-4.02511	abdullahi	-0.1252138
-3.064528	abin	-0.2597919
-2.992393	abinci	-0.2001162
-3.869188	abincin	-0.1021633
-4.135726	abinda	-0.1194129
-4.135726	abkawa	-0.1268271
-4.02511	abokai	-0.08623362
-3.728015	abokan	-0.1771373
-4.135726	abokansa	-0.1261726
-4.02511	abokantaka	-0.07523613
-4.135726	abokiya	-0.1258112
-3.3023	abu	-0.1524416
-4.135726	abubawanm	-0.1063739
-3.120271	abubuwa	-0.2002193
-3.091506	abubuwan	-0.2746443
-4.135726	abuja	-0.08989742
-3.869188	abun	-0.06744134
-4.135726	abuta	-0.1063739
-4.135726	ada	-0.08989742
-4.135726	adabi	-0.1253589
-4.02511	adabin	-0.08709933
-4.135726	adadi	-0.1063739
-4.135726	adadin	-0.1258564
-3.621648	adalci	-0.1507471
-3.869188	adam	-0.08627771
-4.135726	adama	-0.08989742
-4.135726	adamu	-0.1256077
-4.135726	adana	-0.1268045
-4.135726	adawa	-0.06748833
-4.135726	addaba	-0.1169516
-3.621648	addinai	-0.07003552
-4.135726	addinan	-0.1267143
-3.536275	addini	-0.146037
-3.120271	addinin	-0.2993446
-4.135726	adduna	-0.1063739
-4.135726	adereshinmu	-0.1267594
-4.135726	adireshin	-0.1268673
-3.621648	ado	-0.07515989
-4.02511	afghanistan	-0.08951417
-3.039128	afirka	-0.158091
-3.3023	afrika	-0.1766842
-4.135726	afril	-0.06748833
-4.135726	afrilu	-0.1194359
-3.621648	agaji	-0.09264977
-4.135726	agazawa	-0.1261726
-4.135726	agogo	-0.1234996
-4.02511	agogon	-0.1230311
-4.135726	agusta	-0.1194359
-4.135726	agustan	-0.1268271
-4.135726	agwagi	-0.1259016
-4.135726	agyekum	-0.1268766
-3.869188	ahmad	-0.1867431
-4.135726	ahmadi	-0.1268766
-4.02511	ahmadinejad	-0.08904703
-4.02511	ahmed	-0.1267458
-3.621648	aika	-0.1979789
-4.135726	aikace	-0.1268766
-4.135726	aikacen	-0.126782
-3.869188	aikata	-0.08773622
-4.135726	aikawa	-0.1063739
-4.135726	aike	-0.08989742
-4.02511	aikewa	-0.1996492
-2.91175	aiki	-0.2192966
-2.645204	aikin	-0.1875167
-4.135726	aikina	-0.08989742
-4.135726	aikinmu	-0.1266467
-4.02511	aikinsa	-0.121413
-3.536275	aiko	-0.1276264
-4.135726	ainihin	-0.1266918
-3.728015	ainun	-0.2010897
-3.350055	aiwatar	-0.4474632
-4.135726	aiwatarwa	-0.08989742
-4.135726	aje	-0.1265338
-4.135726	aji	-0.1260823
-3.869188	ajin	-0.1052566
-3.350055	ajiye	-0.06894796
-2.950202	aka	-0.115948
-4.135726	akalla	-0.1263984
-3.184237	akan	-0.1766569
-4.135726	akansa	-0.1194129
-4.135726	akansu	-0.126263
-3.22014	ake	-0.1388911
-4.135726	akin	-0.1268673
-4.135726	akingbola	-0.1194129
-2.893729	akwai	-0.146392
-4.135726	akwati	-0.1258564
-4.02511	akwatunan	-0.06748833
-3.621648	al	-0.1267494
-4.135726	al'adar	-0.1063739
-3.728015	al'adu	-0.09393421
-4.02511	al'adun	-0.2199896
-4.135726	al'amari	-0.1169516
-4.135726	al'amarin	-0.1063739
-4.02511	al'amuran	-0.1238947
-4.02511	al'umma	-0.0861841
-4.135726	al'ummarsu	-0.08989742
-4.135726	alaihissalam	-0.08989742
-4.02511	alaikum	-0.1267502
-4.135726	alaka	-0.120787
-4.135726	alakar	-0.1268496
-3.869188	alal	-0.1496183
-3.869188	alama	-0.07513422
-4.02511	alamanta	-0.1831727
-3.869188	alamar	-0.08959763
-3.869188	alamu	-0.122585
-4.135726	alan	-0.1267143
-4.02511	albarka	-0.1831727
-4.135726	albarkacin	-0.1268271
-4.135726	albarkar	-0.1245436
-4.02511	albarkatan	-0.1831727
-3.869188	albarkatun	-0.1324811
-4.135726	albashin	-0.1268496
-4.135726	alehi	-0.1268673
-4.135726	alex	-0.1268766
-4.02511	alfahari	-0.2182041
-4.135726	algeria	-0.08989742
-4.02511	alhaki	-0.08885019
-4.02511	alhamis	-0.1244845
-4.135726	alhassan	-0.1268766
-3.464958	alheri	-0.1054924
-3.869188	ali	-0.08399443
-4.135726	aliki	-0.1194129
-4.135726	aljanna	-0.1258112
-4.135726	alkahira	-0.1063739
-4.02511	alkama	-0.06748833
-4.135726	alkawari	-0.08989742
-4.02511	alkawarin	-0.08462129
-4.135726	alkibla	-0.08989742
-4.135726	alkiblar	-0.1264436
-3.184237	allah	-0.1731464
-4.135726	allahu	-0.1268766
-3.728015	allura	-0.217629
-4.135726	alluran	-0.1268673
-4.135726	allurar	-0.1265113
-3.869188	almara	-0.08775111
-4.135726	almubazzaranci	-0.1252457
-4.135726	amarya	-0.1253589
-4.135726	ambaliya	-0.08989742
-3.464958	ambaliyar	-0.1694146
-4.135726	amerika	-0.1063739
-3.728015	amfana	-0.2183639
-4.135726	amfanawa	-0.1253589
-3.015132	amfani	-0.4368365
-3.621648	amfanin	-0.1608739
-4.02511	aminai	-0.1137516
-4.135726	aminan	-0.1266241
-3.728015	amince	-0.3894387
-3.728015	amincewa	-0.1803681
-4.135726	amincewar	-0.1264436
-3.728015	aminci	-0.09988661
-2.813383	amma	-0.1006786
-4.135726	amman	-0.1220656
-3.464958	amsa	-0.0909168
-4.135726	amshi	-0.1183886
-4.135726	amsoshin	-0.1268766
-3.120271	amurka	-0.1379677
-2.435899	an	-0.2407394
-2.813383	ana	-0.1765905
-4.135726	anan	-0.1235904
-4.02511	anfani	-0.1264751
-4.135726	anfanin	-0.1259919
-4.135726	ango	-0.08989742
-4.02511	angola	-0.1831727
-4.135726	anhui	-0.120787
-4.02511	aniyar	-0.1265202
-4.135726	aniyarta	-0.1194359
-3.536275	annabi	-0.2587005
-4.135726	annashuwa	-0.1245436
-4.135726	annoba	-0.08989742
-4.135726	anzu	-0.1245889
-4.135726	arabiya	-0.1063739
-4.135726	araha	-0.1262404
-3.728015	arbain	-0.2168216
-3.25928	arewa	-0.1428062
-3.869188	arewacin	-0.1803746
-4.02511	argentina	-0.102847
-4.135726	armashi	-0.08989742
-4.02511	aron	-0.1268178
-3.621648	arziki	-0.1312265
-3.869188	arzikin	-0.1290475
-4.135726	arzikinmu	-0.1259468
-4.135726	arzikinsu	-0.120787
-4.135726	arzikinta	-0.08628313
-3.869188	asabar	-0.08829357
-4.02511	asalinsa	-0.1831727
-4.135726	asean	-0.121276
-4.135726	asefi	-0.1194129
-4.02511	ashe	-0.2102269
-3.091506	ashirin	-0.4332385
-3.869188	asibiti	-0.09489645
-4.135726	asibitin	-0.1268045
-4.02511	asibitoci	-0.1151809
-4.135726	asiri	-0.1194359
-3.728015	asiya	-0.08835262
-4.135726	assalamu	-0.1268673
-4.135726	asu	-0.1259242
-4.135726	asusu	-0.1235904
-3.869188	asusun	-0.08942562
-4.135726	athens	-0.1063739
-4.135726	atisayin	-0.1169516
-3.728015	auduga	-0.1493758
-4.02511	augusta	-0.1252773
-4.135726	auku	-0.125879
-4.02511	aukuwar	-0.08966157
-4.135726	auna	-0.1257433
-4.135726	aura	-0.126579
-3.350055	aure	-0.1169254
-4.135726	auren	-0.126421
-4.135726	austria	-0.08989742
-4.135726	awadh	-0.1268673
-4.135726	awoyi	-0.08989742
-4.135726	ayan	-0.1063739
-4.135726	ayarin	-0.1268496
-4.135726	ayin	-0.1063739
-4.135726	ayoyin	-0.1268766
-3.536275	ayyuka	-0.09210556
-3.039128	ayyukan	-0.1534467
-4.135726	azal	-0.1262404
-4.135726	azare	-0.1063739
-4.02511	azumi	-0.1831727
-3.869188	azurfa	-0.0663856
-4.135726	b	-0.08989742
-1.955116	ba	-0.4415546
-4.135726	baba	-0.09995398
-4.02511	baban	-0.2201519
-3.869188	babba	-0.1786869
-2.758341	babban	-0.2012124
-3.22014	babbar	-0.1867906
-4.135726	babel	-0.1194129
-4.135726	babi	-0.08953874
-3.403718	babu	-0.07347323
-3.869188	bace	-0.1111878
-4.135726	baci	-0.1169516
-4.02511	bada	-0.126484
-2.745605	bai	-0.1479246
-4.02511	baiwa	-0.1255714
-4.02511	baje	-0.1267007
-3.869188	bajinta	-0.1486593
-4.135726	baka	-0.08989742
-4.135726	bakanta	-0.1194359
-3.184237	baki	-0.1587966
-3.064528	bakin	-0.14938
-3.728015	bakinsa	-0.1330721
-4.135726	bakinta	-0.1220656
-4.02511	bako	-0.2126882
-3.869188	bakon	-0.1010656
-4.135726	bakunci	-0.08989742
-3.015132	bakwai	-0.2778898
-4.135726	bala'i	-0.08989742
-4.135726	bala'in	-0.1268673
-4.135726	balaraben	-0.1252005
-4.135726	baligai	-0.1235904
-4.135726	ballet	-0.1234996
-4.02511	bamban	-0.05605238
-4.02511	bambanci	-0.07904381
-3.869188	bambancin	-0.1114818
-3.151077	ban	-0.1251739
-4.02511	bana	-0.1475748
-4.135726	banban	-0.1042982
-3.728015	banbanci	-0.132629
-4.135726	banda	-0.1249061
-4.02511	bang	-0.1028468
-4.135726	bangare	-0.1267594
-3.728015	bangaren	-0.08603991
-3.621648	bangarori	-0.1473366
-3.464958	bangarorin	-0.3140708
-4.135726	bango	-0.1259919
-3.728015	bangon	-0.162276
-4.135726	bani	-0.08989742
-4.135726	banji	-0.1267143
-3.728015	bankin	-0.08911575
-4.135726	bankuna	-0.08989742
-4.135726	bao	-0.1268766
-4.135726	baqir	-0.1252457
-3.869188	bar	-0.1106803
-3.728015	bara	-0.119476
-4.135726	barack	-0.126782
-3.728015	baraka	-0.2027326
-4.135726	barazana	-0.1220656
-4.135726	barazanar	-0.1268766
-4.135726	barazil	-0.1194129
-3.869188	barci	-0.14952
-3.464958	bari	-0.2365539
-4.135726	barka	-0.1063739
-4.135726	barkanku	-0.1063739
-4.135726	barkanmu	-0.1063739
-4.135726	barke	-0.08628313
-4.135726	barrister	-0.1268673
-4.135726	basa	-0.1266692
-4.135726	basasa	-0.1063739
-3.869188	bashir	-0.1325744
-4.02511	basira	-0.06748833
-4.02511	basu	-0.1262945
-4.135726	basusuka	-0.1251778
-4.02511	bata	-0.1259783
-3.621648	batu	-0.03740247
-3.3023	batun	-0.1325224
-4.02511	batutuwa	-0.1062414
-4.135726	batutuwan	-0.1063739
-4.02511	bauchi	-0.08986281
-4.135726	bauchin	-0.1268271
-3.621648	bauta	-0.2128719
-4.02511	bautawa	-0.1163375
-4.135726	bawan	-0.1252005
-3.3023	baya	-0.05304997
-2.721203	bayan	-0.2309278
-3.728015	bayanai	-0.09055596
-4.135726	bayanan	-0.1063739
-3.403718	bayani	-0.2337737
-3.869188	bayanin	-0.06369218
-4.135726	bayansa	-0.1253589
-4.135726	bayansu	-0.1063739
-3.22014	bayar	-0.3958312
-4.135726	bayarwa	-0.1153661
-4.135726	bayelsa	-0.08989742
-4.02511	bayi	-0.1191926
-2.950202	bayyana	-0.281861
-4.135726	bayyanarsa	-0.08989742
-4.135726	bayyane	-0.08628313
-4.02511	bayyanuwar	-0.08975982
-3.728015	bazara	-0.09158384
-4.02511	bazuwa	-0.08732165
-3.536275	bbc	-0.10339
-4.135726	beckham	-0.120787
-4.135726	begen	-0.126159
-4.135726	bei	-0.120787
-3.536275	beijing	-0.1028084
-4.135726	beiruit	-0.08989742
-4.02511	belgium	-0.0959292
-4.02511	benaye	-0.1060049
-4.135726	bene	-0.1194359
-3.064528	bi	-0.1845771
-3.536275	biki	-0.1352769
-3.151077	bikin	-0.1303577
-4.135726	bil	-0.1268766
-4.02511	biliyan	-0.08860871
-4.135726	bilkisu	-0.08989742
-3.25928	bin	-0.1940858
-4.135726	bincika	-0.1268045
-3.151077	bincike	-0.1444561
-3.3023	binciken	-0.09507422
-4.135726	bindiga	-0.123545
-4.02511	binne	-0.08798797
-3.350055	birane	-0.1190797
-3.869188	biranen	-0.1672239
-4.135726	biri	-0.1063739
-3.621648	birni	-0.06864966
-2.859787	birnin	-0.2199116
-4.135726	birtaniya	-0.1063739
-2.65528	bisa	-0.1348222
-4.135726	bisani	-0.1137468
-4.135726	bisashe	-0.1063739
-3.869188	bishiyoyi	-0.1153522
-4.135726	biskit	-0.1268496
-4.135726	bissau	-0.1063739
-3.621648	biya	-0.1955243
-3.536275	biyan	-0.1552379
-3.184237	biyar	-0.1654
-3.869188	biyayya	-0.1273959
-4.135726	biye	-0.1063739
-3.869188	biyo	-0.1155003
-2.721203	biyu	-0.2227838
-4.135726	blair	-0.1169516
-4.135726	bo	-0.1268045
-4.135726	boma	-0.1268766
-4.135726	bomai	-0.08989742
-4.02511	botswana	-0.1063405
-4.135726	boyayyen	-0.1266467
-3.621648	boye	-0.1038321
-4.135726	brawsa	-0.120787
-4.02511	brazil	-0.11351
-3.869188	britaniya	-0.09668874
-4.135726	brown	-0.1169516
-4.135726	browsar	-0.1268045
-4.135726	bu	-0.1251552
-3.869188	budda	-0.1946338
-4.02511	buddah	-0.09513909
-3.869188	buddha	-0.09039295
-3.120271	bude	-0.1654757
-4.135726	budurwa	-0.1225304
-3.25928	buga	-0.08471827
-3.403718	bugawa	-0.07183054
-4.02511	bugu	-0.1996492
-4.135726	bugun	-0.1267594
-4.135726	bukaci	-0.1063309
-3.869188	bukata	-0.1293406
-3.869188	bukatar	-0.08776028
-4.135726	bukatu	-0.1234996
-4.135726	bukatun	-0.08989742
-4.135726	bukatunsu	-0.1194359
-3.728015	bukukuwa	-0.2022711
-4.02511	bukukuwan	-0.08978438
-3.869188	bullo	-0.08821167
-4.135726	bullowa	-0.1063739
-4.135726	bullowar	-0.1267143
-3.25928	bunkasa	-0.1820223
-3.869188	bunkasuwa	-0.08106582
-3.25928	bunkasuwar	-0.2567361
-4.135726	bunkasuwarsu	-0.08989742
-4.135726	buraguzen	-0.1268271
-3.621648	burge	-0.3575029
-4.02511	buri	-0.08480509
-4.02511	burin	-0.126159
-4.135726	burina	-0.1220656
-4.135726	burinmu	-0.1220656
-4.135726	burinsa	-0.1194359
-4.02511	burtaniya	-0.08788932
-4.135726	burundi	-0.1198118
-3.869188	busa	-0.1857277
-3.728015	busawa	-0.0681614
-4.02511	bush	-0.1038324
-4.135726	bushara	-0.1063739
-4.135726	bushe	-0.1063739
-4.135726	business	-0.1268766
-4.135726	bututun	-0.1234996
-4.135726	buwayi	-0.126579
-4.02511	buyi	-0.1497165
-4.135726	camerron	-0.1268673
-4.135726	can	-0.08989742
-3.869188	canada	-0.1273959
-4.135726	cancanci	-0.1266241
-3.869188	canja	-0.1497165
-4.135726	canjawa	-0.1262404
-4.135726	canji	-0.08989742
-4.135726	canza	-0.1257207
-4.135726	cao	-0.1144854
-4.135726	castro	-0.1268271
-2.598058	ce	-0.12992
-4.135726	ceto	-0.120787
-3.869188	ceton	-0.1242663
-2.524276	cewa	-0.2437912
-3.536275	cewar	-0.138209
-4.02511	chadi	-0.1231903
-4.135726	chang	-0.08989742
-4.135726	chavez	-0.1194129
-3.728015	chen	-0.09844441
-4.135726	cheng	-0.1268766
-4.135726	chengdu	-0.1249288
-4.135726	chi	-0.1268673
-4.135726	china	-0.1063739
-4.135726	chinedu	-0.08989742
-4.135726	chongqing	-0.123545
-3.869188	chu	-0.1391211
-2.635356	ci	-0.4104037
-4.135726	cibiya	-0.1258112
-3.621648	cibiyar	-0.08926777
-4.135726	cibiyoyi	-0.1235904
-4.135726	cibiyoyin	-0.1264887
-3.869188	cigaba	-0.08400945
-4.135726	cigaban	-0.08989742
-3.536275	cika	-0.1468766
-3.464958	cikakken	-0.1047086
-3.869188	cikakkiyar	-0.1866936
-4.135726	cikas	-0.08774131
-3.464958	cike	-0.3013577
-2.992393	ciki	-0.1885325
-2.265178	cikin	-0.1843536
-4.02511	cikinsa	-0.1831727
-3.869188	cikinsu	-0.07640162
-4.135726	cim	-0.1261726
-3.464958	cimma	-0.1070918
-3.184237	cin	-0.1746587
-4.135726	cincinnati	-0.1268766
-3.869188	cinikayya	-0.1380872
-3.464958	ciniki	-0.2014295
-3.728015	cinikin	-0.1113783
-4.135726	cinikiya	-0.1063739
-4.135726	cinye	-0.1248608
-3.869188	cire	-0.08979362
-4.135726	city	-0.08989742
-3.869188	ciwo	-0.1148049
-3.621648	ciwon	-0.1145625
-3.869188	ciyar	-0.1273959
-4.135726	ciyawa	-0.1194359
-3.869188	ciyayi	-0.1380884
-4.135726	cizon	-0.1268496
-4.135726	clinton	-0.123545
-4.135726	co	-0.1167206
-4.135726	colombia	-0.1063739
-4.135726	conakry	-0.08989742
-4.135726	cond	-0.1194129
-3.621648	confucius	-0.1677182
-4.135726	congo	-0.1268766
-4.135726	costa	-0.1194129
-4.135726	cousin	-0.1194129
-3.869188	cudanyar	-0.06716241
-4.135726	cunkushe	-0.1267594
-3.869188	cutar	-0.1266371
-3.728015	cututtuka	-0.09204122
-4.135726	cututtukan	-0.1268045
-4.135726	d	-0.1169516
-1.335528	da	-0.06484559
-4.135726	da'kalibar	-0.1268496
-3.869188	dab	-0.1662481
-3.350055	dabam	-0.2929085
-2.930551	daban	-0.1672827
-3.621648	dabara	-0.1486124
-4.02511	dabarar	-0.1231994
-4.135726	dabaru	-0.1063739
-3.728015	dabarun	-0.1018584
-4.02511	dabba	-0.1183196
-3.403718	dabbobi	-0.1093463
-4.135726	dabino	-0.1063739
-3.869188	dabobbi	-0.06183668
-3.869188	dace	-0.1111713
-3.728015	dacewa	-0.2638737
-4.135726	dadadden	-0.08989742
-4.02511	daddale	-0.1169191
-3.621648	dade	-0.1048507
-4.02511	dadewa	-0.08096267
-3.536275	dadi	-0.07101957
-3.350055	dadin	-0.1035209
-3.464958	dafa	-0.1324529
-4.135726	dafawa	-0.1245436
-2.265178	daga	-0.2179943
-3.728015	dagiya	-0.3894387
-3.039128	dai	-0.05920924
-4.135726	daida	-0.1063739
-3.728015	daidai	-0.1376197
-3.728015	daidaici	-0.1211231
-3.3023	daidaita	-0.1138629
-4.135726	daidaito	-0.08989742
-4.135726	daidaiton	-0.1266241
-4.02511	daidaituwa	-0.2102269
-4.135726	daidaiwuwa	-0.1259468
-4.135726	daily	-0.1268766
-3.621648	daina	-0.1168697
-3.536275	daji	-0.1489137
-3.869188	dajin	-0.1493971
-4.135726	daka	-0.1250646
-4.135726	dakalin	-0.08989742
-4.135726	dakar	-0.08989742
-4.135726	dakaru	-0.1189171
-4.02511	dakarun	-0.1193942
-3.621648	dakatar	-0.3150844
-2.676162	dake	-0.1496612
-4.135726	daki	-0.1063739
-3.064528	dakin	-0.2310772
-4.135726	dakinsa	-0.08989742
-4.135726	dakta	-0.1268673
-4.02511	dakuna	-0.06748833
-3.728015	dakunan	-0.0889041
-4.135726	dala	-0.1266692
-4.135726	dalai	-0.1268496
-4.02511	dalar	-0.2198543
-3.621648	dalibai	-0.1471403
-3.621648	daliban	-0.1012885
-3.728015	dalibi	-0.07631142
-3.728015	dalibta	-0.120541
-4.135726	dalilai	-0.1063739
-4.02511	dalilan	-0.1996492
-4.135726	dalili	-0.08989742
-3.464958	dalilin	-0.2641774
-4.135726	dallar	-0.126579
-4.135726	dalma	-0.08989742
-4.02511	dam	-0.1235584
-3.536275	dama	-0.0693711
-3.728015	damar	-0.1267111
-4.135726	damara	-0.1259468
-4.135726	damaskas	-0.08989742
-3.621648	damisa	-0.08986465
-4.135726	damshi	-0.08989742
-4.135726	damu	-0.1220656
-4.135726	damuwa	-0.08989742
-4.135726	damuwarta	-0.1250646
-2.798955	dan	-0.1577474
-4.02511	dandali	-0.08737105
-3.536275	dandalin	-0.129395
-4.135726	dandamalin	-0.1257433
-4.135726	dandana	-0.1264661
-3.536275	dangane	-0.3564594
-4.135726	dangantaka	-0.08989742
-3.350055	dangantakar	-0.233298
-4.135726	dangantakarsu	-0.1253589
-4.135726	dangi	-0.08989742
-4.135726	dangogi	-0.08989742
-4.135726	dani	-0.1169516
-4.135726	daniel	-0.1268766
-4.135726	danjita	-0.1235904
-4.135726	danka	-0.126421
-4.135726	dankon	-0.1268496
-4.135726	danne	-0.1248608
-3.621648	dansa	-0.321599
-3.869188	dao	-0.1320128
-4.135726	daolang	-0.1268766
-4.135726	dara	-0.1261726
-3.536275	daraja	-0.1276697
-4.135726	darajanta	-0.1267143
-4.135726	darajar	-0.1268766
-4.135726	darajarsu	-0.1253589
-4.135726	daram	-0.1250646
-4.135726	darasi	-0.1063739
-3.464958	dare	-0.1293823
-4.135726	darekta	-0.1194359
-4.135726	daren	-0.1268271
-3.728015	darfur	-0.1441963
-3.120271	dari	-0.2116766
-4.135726	darikar	-0.1268045
-3.869188	dariya	-0.1273204
-3.728015	dasa	-0.08970036
-4.135726	dashen	-0.08989742
-4.135726	datarwa	-0.1063739
-4.135726	dattawa	-0.1258564
-4.135726	dattawan	-0.1267594
-4.02511	dattijai	-0.1237811
-4.135726	dau	-0.1268496
-3.464958	dauka	-0.1192815
-3.621648	daukaka	-0.08705461
-4.135726	daukakar	-0.1268673
-4.02511	daukan	-0.1265653
-3.536275	daukar	-0.1133427
-3.621648	dauke	-0.1364216
-3.464958	dauki	-0.1434579
-4.02511	daula	-0.116208
-3.039128	daular	-0.2700362
-3.728015	dauloli	-0.08595608
-4.135726	daulolin	-0.08989742
-3.869188	daura	-0.08965154
-4.135726	daure	-0.1248608
-4.135726	dauri	-0.1169516
-4.135726	dawa	-0.1063739
-3.621648	dawaki	-0.1732792
-4.135726	dawakin	-0.1263081
-4.135726	dawo	-0.1063739
-4.135726	dawowa	-0.1248608
-4.135726	day	-0.120787
-2.539623	daya	-0.2878211
-4.135726	daya'	-0.1247475
-4.02511	dayan	-0.1060758
-4.135726	de	-0.1268766
-4.135726	delta	-0.08989742
-4.135726	demokuradiyya	-0.120787
-4.135726	demukuradiya	-0.1220656
-3.728015	di	-0.124775
-4.135726	didier	-0.1268766
-3.536275	digiri	-0.3068269
-3.621648	dila	-0.1319399
-4.135726	dillancin	-0.126741
-4.135726	dilnar	-0.1268673
-3.536275	dimbin	-0.1061544
-3.403718	din	-0.155796
-4.135726	ding	-0.1063739
-4.135726	dinga	-0.1268673
-4.02511	dinka	-0.08983349
-3.869188	dinke	-0.1833707
-4.135726	dinkin	-0.1264887
-3.728015	dinkuwar	-0.2013114
-4.135726	diplomasiya	-0.1169516
-3.869188	diplomasiyya	-0.0532672
-4.02511	direktan	-0.1267007
-4.135726	disamba	-0.1194359
-4.135726	diya	-0.1265113
-4.135726	diyya	-0.120787
-4.135726	dj	-0.1268766
-4.135726	djibo	-0.08989742
-4.02511	dodanni	-0.1045594
-3.869188	dodo	-0.1584198
-3.869188	dogara	-0.07698479
-3.728015	dogo	-0.1082722
-3.869188	dogon	-0.08829823
-4.02511	doguwar	-0.1266105
-3.621648	doka	-0.07700486
-3.536275	dokar	-0.1110246
-3.621648	doki	-0.08568452
-3.728015	dokin	-0.08904196
-3.869188	dokoki	-0.07623542
-3.536275	dokokin	-0.09948369
-3.869188	dolar	-0.1243846
-3.350055	dole	-0.4184448
-2.616307	domin	-0.1489666
-2.406183	don	-0.1947699
-4.02511	dong	-0.1257071
-3.728015	dora	-0.3365308
-4.135726	dorewa	-0.08989742
-3.869188	dragon	-0.08584714
-4.135726	drogba	-0.1268271
-4.02511	du	-0.2201426
-4.135726	duanwu	-0.1258564
-3.403718	duba	-0.1026264
-3.869188	dubai	-0.146265
-4.02511	dubbai	-0.08480508
-4.135726	dubban	-0.1258564
-4.135726	dubi	-0.1248742
-2.930551	dubu	-0.1967357
-4.135726	dubugoma	-0.126579
-4.02511	dudduba	-0.1258427
-4.135726	dudu	-0.1256529
-4.135726	duhu	-0.08989742
-2.698099	duk	-0.1858117
-4.135726	duka	-0.1250646
-3.621648	dukan	-0.1253721
-3.728015	dukansu	-0.1301836
-4.02511	dukiya	-0.1232585
-4.135726	dukiyoyin	-0.1268673
-3.151077	dukkan	-0.1363382
-4.02511	dukkanmu	-0.1252547
-3.25928	dukkansu	-0.3006074
-3.869188	dukufa	-0.1028088
-4.135726	dumi	-0.1262404
-3.015132	duniya	-0.1940522
-4.135726	duniya'	-0.08989742
-3.869188	duniyar	-0.1320867
-4.135726	dusar	-0.1268673
-3.536275	dutse	-0.07644764
-3.403718	dutsen	-0.13607
-3.25928	duwatsu	-0.2206093
-3.869188	duwatsun	-0.1015917
-4.02511	e	-0.1186321
-4.135726	eagles	-0.08989742
-4.135726	editan	-0.1266918
-4.135726	el	-0.1268496
-4.02511	email	-0.06748833
-4.135726	emei	-0.1026896
-4.135726	enlai	-0.1194129
-4.02511	erhu	-0.1831727
-4.135726	eritrea	-0.1063739
-4.135726	ethiopia	-0.08989742
-4.02511	fa	-0.08172894
-3.464958	fada	-0.04648268
-4.135726	fadakar	-0.08989742
-3.22014	fadar	-0.1782148
-3.536275	fadi	-0.1091818
-3.184237	fadin	-0.1462549
-4.02511	fado	-0.1145318
-4.135726	fafaroma	-0.1169516
-4.135726	fage	-0.1236222
-3.869188	fagen	-0.1220837
-3.869188	fahimci	-0.1263938
-4.02511	fahimta	-0.08975982
-3.621648	fahimtar	-0.1609723
-4.135726	fahimtarta	-0.1220656
-4.02511	faifan	-0.0897107
-4.135726	falastinawa	-0.08989742
-3.22014	fama	-0.86656
-4.135726	fan	-0.1259016
-4.135726	fanni	-0.08989742
-4.02511	fannin	-0.1211197
-4.135726	fanning	-0.1266015
-3.403718	fannoni	-0.1834762
-4.135726	fannonin	-0.1264525
-4.135726	fansa	-0.1169516
-4.135726	fansho	-0.1063739
-3.184237	fara	-0.1280133
-3.621648	faransa	-0.1497497
-3.728015	faranta	-0.1707078
-3.621648	farar	-0.506802
-4.02511	fararen	-0.1266781
-4.135726	fararren	-0.1268271
-4.02511	farashin	-0.1266282
-4.02511	farauta	-0.1488562
-4.135726	farfado	-0.08989742
-4.135726	farfaganda	-0.1245889
-4.02511	farfajiyar	-0.1831727
-4.135726	fargabar	-0.1267594
-3.728015	fari	-0.07858005
-3.091506	farin	-0.532638
-4.135726	farisanci	-0.126263
-4.135726	farkar	-0.1063739
-3.464958	farko	-0.08323963
-4.02511	farkon	-0.1257158
-4.02511	farmaki	-0.1089143
-4.135726	faro	-0.1267143
-3.728015	faru	-0.2888336
-4.135726	faruwa	-0.1235904
-4.135726	fasa	-0.1268271
-3.151077	fasaha	-0.2560874
-3.403718	fasahar	-0.07603968
-4.02511	fasahohi	-0.1075021
-4.02511	fasahohin	-0.08706452
-4.135726	fasali	-0.1194359
-4.02511	fasalin	-0.1268263
-4.02511	fashi	-0.1186644
-4.135726	fashin	-0.1259919
-4.135726	fasinja	-0.123545
-4.135726	fasinjoji	-0.1063739
-4.135726	fassara	-0.1268271
-3.464958	fata	-0.1062887
-3.22014	fatan	-0.09524971
-4.135726	fataucin	-0.1258564
-4.135726	fati	-0.126782
-4.135726	fayu	-0.1169516
-4.135726	federer	-0.1194129
-4.135726	fei	-0.120787
-4.02511	feng	-0.1222798
-4.135726	fengyun	-0.1262856
-4.135726	ferguson	-0.1194129
-4.135726	festus	-0.1268766
-4.135726	fetur	-0.1194359
-3.25928	fi	-0.1052283
-4.135726	fici	-0.08989742
-4.135726	fiffiko	-0.08989742
-3.869188	fifiko	-0.07709599
-4.135726	fil	-0.1268766
-4.02511	filayen	-0.105967
-4.135726	fili	-0.1203157
-4.02511	filim	-0.1136262
-3.728015	filin	-0.07625039
-4.02511	fim	-0.1061941
-4.135726	fin	-0.1063739
-4.135726	fina	-0.1268766
-4.135726	finan	-0.1267594
-4.135726	finland	-0.1063739
-4.135726	firamare	-0.1132076
-4.135726	firaministan	-0.1243395
-4.135726	firayim	-0.1266556
-3.621648	firayin	-0.1958683
-3.464958	fita	-0.2451929
-3.621648	fitar	-0.4863487
-4.135726	fitila	-0.1253589
-3.869188	fitilu	-0.1001907
-3.536275	fito	-0.05992514
-4.135726	fitowa	-0.1063739
-4.135726	fitowar	-0.1267143
-4.135726	fitowarsa	-0.08989742
-2.950202	fiye	-0.6569926
-4.02511	flash	-0.2201519
-4.02511	fu	-0.121093
-4.135726	funtua	-0.08985277
-4.135726	furani	-0.1063739
-3.869188	furanni	-0.1389514
-4.02511	fure	-0.1222342
-4.135726	furofesa	-0.1267594
-4.135726	furucin	-0.1063739
-3.621648	fushi	-0.1530523
-3.869188	fuska	-0.1558368
-4.02511	fuskantar	-0.1263574
-4.135726	fuskar	-0.1259242
-2.273562	ga	-0.1472473
-2.950202	gaba	-0.2126593
-3.869188	gaban	-0.1150114
-3.869188	gabansa	-0.2480235
-4.135726	gabansu	-0.08989742
-3.728015	gabar	-0.1491462
-3.350055	gabas	-0.1363852
-3.536275	gabashin	-0.2765262
-4.135726	gabata	-0.08989742
-3.464958	gabatar	-0.2560381
-4.02511	gabobi	-0.06654108
-4.135726	gabobin	-0.08989742
-4.135726	gabon	-0.1268766
-4.135726	gada	-0.1234996
-4.02511	gadi	-0.1240536
-3.869188	gado	-0.1131237
-4.135726	gadoji	-0.06748833
-4.135726	gadon	-0.1265338
-4.02511	gafara	-0.1211618
-4.02511	gagarumin	-0.126055
-3.728015	gaggauta	-0.1252318
-4.02511	gaggawa	-0.0863574
-4.02511	gai	-0.1996492
-3.869188	gaisuwa	-0.0862187
-4.02511	gajeren	-0.08953874
-4.02511	gaji	-0.1232448
-4.02511	gajimare	-0.1831727
-3.869188	gajiya	-0.1219469
-4.135726	gajiyar	-0.1263081
-4.135726	galaba	-0.1250646
-4.02511	galibi	-0.1245615
-4.135726	galibin	-0.126579
-3.464958	gama	-0.1456506
-3.869188	gamayyar	-0.2013114
-3.091506	game	-0.7824281
-4.02511	gami	-0.07963238
-3.728015	gamsu	-0.3894387
-3.869188	gamsuwa	-0.1011468
-3.869188	gamu	-0.2645
-4.135726	gamuwa	-0.1063739
-4.02511	gan	-0.08958787
-4.02511	gana	-0.1662481
-3.728015	ganawa	-0.1365765
-4.135726	ganawar	-0.1263533
-3.869188	gandun	-0.2379534
-3.869188	gane	-0.1303817
-4.02511	ganga	-0.1166608
-4.135726	gangan	-0.1135565
-3.25928	gani	-0.108296
-3.120271	ganin	-0.201349
-4.135726	ganina	-0.1265564
-4.02511	ganinsa	-0.09872384
-4.02511	ganinsu	-0.111996
-3.403718	gano	-0.165658
-4.135726	gansu	-0.1169516
-4.02511	ganuwa	-0.06251708
-4.135726	ganuwar	-0.08989742
-4.02511	ganyaye	-0.1996492
-4.135726	ganyayen	-0.1268271
-4.02511	ganye	-0.06571124
-4.135726	ganyen	-0.1268766
-4.135726	gardama	-0.1250646
-3.464958	gare	-0.1833642
-4.135726	gareka	-0.1194129
-4.135726	gargadin	-0.1262719
-4.02511	gargajiga	-0.218883
-3.350055	gargajiya	-0.2409752
-4.02511	gargajiyar	-0.1470069
-3.728015	gari	-0.08849514
-3.621648	garin	-0.0460756
-4.135726	garinsu	-0.1194129
-4.135726	garkuwa	-0.1063739
-4.135726	garuruwa	-0.1063739
-4.135726	garzaya	-0.1257207
-4.135726	gas	-0.08732165
-4.02511	gasa	-0.08917001
-3.869188	gasannin	-0.1050907
-3.064528	gasar	-0.2109888
-4.135726	gasassun	-0.1268766
-4.02511	gashi	-0.2167749
-4.135726	gashin	-0.1268766
-4.135726	gaskata	-0.1256077
-3.621648	gaske	-0.1112205
-3.403718	gaskiya	-0.06563369
-4.02511	gaskiyar	-0.08771663
-4.02511	gatanci	-0.08820985
-4.135726	gawar	-0.08989742
-3.869188	gaya	-0.1974725
-4.135726	gayawa	-0.1266467
-4.02511	gayya	-0.0887025
-4.135726	gayyace	-0.08322739
-4.02511	gayyatar	-0.1996492
-4.135726	gaz	-0.1194129
-3.728015	gaza	-0.2027426
-4.02511	gefe	-0.1260009
-3.869188	gefen	-0.08969589
-4.135726	gefuna	-0.1260823
-4.135726	gefunan	-0.126782
-4.135726	geliang	-0.1234996
-4.135726	george	-0.08989742
-3.869188	ghana	-0.1497704
-3.120271	gida	-0.220494
-3.728015	gidaje	-0.05381168
-3.621648	gidajen	-0.08723684
-2.950202	gidan	-0.1789177
-4.02511	gidana	-0.08172894
-4.135726	gidanka	-0.08989742
-3.728015	gidansa	-0.1128769
-4.135726	gidanta	-0.1261275
-4.135726	gilbert	-0.1063739
-4.02511	gimbiya	-0.08986281
-3.22014	gina	-0.09461264
-4.135726	ginawa	-0.1169516
-4.02511	gindin	-0.1262493
-3.728015	gine	-0.1830842
-4.02511	gini	-0.1225759
-4.135726	ginin	-0.126782
-4.135726	ginshiki	-0.1235904
-4.135726	girbi	-0.08989742
-4.02511	girbin	-0.2200798
-4.135726	girgiza	-0.08989742
-4.02511	girgizar	-0.2176148
-4.135726	girka	-0.1063739
-3.869188	girke	-0.08922896
-4.02511	girki	-0.08725737
-3.3023	girma	-0.1005806
-3.728015	girmama	-0.1336622
-3.869188	girmamawa	-0.08478025
-4.135726	girman	-0.08882558
-3.728015	giya	-0.0905067
-4.02511	giyar	-0.1250057
-4.135726	gobe	-0.1266918
-4.02511	gode	-0.1259105
-3.350055	godiya	-0.105786
-4.135726	godiyarta	-0.1245889
-3.869188	goge	-0.07582986
-3.728015	gogewa	-0.07594134
-2.992393	goma	-0.2467791
-4.135726	gomai	-0.1194359
-3.621648	gona	-0.1177717
-3.728015	gonaki	-0.08339973
-4.135726	gonakin	-0.1063739
-4.135726	gong	-0.1267594
-4.135726	goodluck	-0.1169516
-3.869188	gora	-0.130357
-4.135726	gordon	-0.1268766
-4.135726	goyawa	-0.1063739
-3.621648	goyon	-0.2563185
-4.02511	gu	-0.2189282
-4.135726	guanghui	-0.08989742
-4.135726	guardian	-0.120787
-4.135726	guba	-0.09743737
-4.135726	gubar	-0.1268766
-3.039128	guda	-0.2685865
-3.3023	gudanar	-0.5783082
-3.869188	gudanarwa	-0.07220367
-4.135726	gudanarwar	-0.1243395
-4.135726	guddummuwa	-0.1253589
-3.536275	gudu	-0.1097909
-4.135726	gudummowa	-0.08989742
-4.135726	gudummowar	-0.1268271
-4.135726	gudumuwa	-0.1225987
-4.02511	gudun	-0.2201426
-4.135726	guifang	-0.1251778
-4.02511	guilin	-0.1256845
-3.869188	guinea	-0.06741548
-4.135726	guiwa	-0.05404115
-4.02511	guiwar	-0.1585343
-4.135726	guiwarsu	-0.08989742
-4.135726	guiyang	-0.1259468
-4.02511	gumi	-0.06748833
-4.135726	gumurzun	-0.08989742
-3.869188	gun	-0.08495305
-4.135726	gunduma	-0.08989742
-4.02511	gundumar	-0.08986281
-4.02511	gundumomi	-0.0893667
-4.02511	gunki	-0.08628313
-4.135726	guraban	-0.1259242
-4.02511	guraben	-0.2191994
-4.02511	gurasa	-0.08899783
-4.02511	gurbata	-0.1246885
-3.869188	gurbin	-0.1857051
-3.728015	gurguzu	-0.05476048
-4.135726	gutsura	-0.1268045
-4.135726	gwabza	-0.1063739
-3.869188	gwada	-0.08877128
-3.621648	gwagwarmaya	-0.1600382
-4.135726	gwagwarmayar	-0.08989742
-4.02511	gwaje	-0.1169097
-4.135726	gwajin	-0.1250646
-4.135726	gwamna	-0.1268766
-4.02511	gwamnan	-0.1263622
-3.464958	gwamnati	-0.1318653
-2.970786	gwamnatin	-0.3207012
-4.135726	gwamnatinta	-0.1267143
-4.135726	gwamnatoci	-0.08989742
-3.869188	gwamnatocin	-0.08841676
-4.135726	gwaninta	-0.1169516
-4.135726	gwanintarsa	-0.1169516
-3.869188	gwiwa	-0.07512803
-4.135726	gwiwar	-0.1044215
-3.403718	gyara	-0.05886611
-3.869188	gyare	-0.1230174
-3.728015	habaka	-0.08831312
-4.02511	habasha	-0.06748833
-4.135726	habbaka	-0.1267594
-3.091506	hada	-0.1943334
-4.135726	hadadden	-0.126782
-3.728015	hadarin	-0.1334704
-3.728015	haddasa	-0.1228529
-4.135726	haddin	-0.1263984
-3.621648	hade	-0.3564594
-2.970786	hadin	-0.471602
-4.135726	hadiye	-0.1268045
-4.135726	hadu	-0.1255172
-4.02511	haduwa	-0.09995398
-4.135726	haduwar	-0.08989742
-3.869188	hagu	-0.06612635
-3.869188	haifar	-0.2645
-4.02511	haife	-0.08083734
-4.02511	haifi	-0.1265605
-4.135726	haihuwa	-0.05492017
-4.135726	haihuwar	-0.1264751
-4.135726	haikali	-0.08989742
-4.135726	haikalin	-0.1268673
-4.02511	hainan	-0.1173758
-4.135726	haiqing	-0.1194129
-4.135726	haiti	-0.120787
-2.771461	haka	-0.106238
-3.464958	hakan	-0.1227608
-3.728015	hakika	-0.1111713
-4.135726	hakikanan	-0.126579
-3.621648	hakikanin	-0.1253948
-4.135726	hakki	-0.1063739
-4.02511	hakkin	-0.1254899
-4.135726	hakkinsu	-0.08989742
-4.135726	hakkinta	-0.1194359
-4.02511	hakkokin	-0.1063123
-4.135726	hako	-0.1245436
-3.728015	hakuri	-0.1376792
-4.02511	halaka	-0.08836749
-3.621648	halarci	-0.2125952
-3.728015	halartar	-0.1233217
-4.135726	halayen	-0.08885996
-4.02511	halayyar	-0.1261364
-3.536275	hali	-0.1053047
-3.039128	halin	-0.2810877
-3.869188	halitta	-0.1177305
-4.02511	halittar	-0.1261816
-3.350055	halittu	-0.1917566
-4.02511	hallaka	-0.08939128
-3.350055	hamada	-0.1127959
-4.135726	hamadar	-0.1063739
-4.02511	hamas	-0.1131653
-4.135726	hambarar	-0.08989742
-4.135726	hamburar	-0.1063739
-4.02511	hamid	-0.1263756
-3.728015	hamsin	-0.1259404
-3.22014	han	-0.1033886
-3.403718	hana	-0.1504442
-3.728015	hanci	-0.101936
-4.02511	hangen	-0.2201426
-4.135726	hango	-0.1266692
-3.464958	hankali	-0.09194193
-4.135726	hankalin	-0.1258564
-4.135726	hankalina	-0.1252005
-4.135726	hankalinsa	-0.1230766
-4.135726	hankula	-0.1249288
-4.02511	hankulan	-0.08835262
-4.135726	hankulansu	-0.1245889
-3.464958	hannu	-0.2087453
-4.02511	hannun	-0.1265653
-4.135726	hannunka	-0.08989742
-4.135726	hannunsu	-0.06748833
-3.536275	hanya	-0.07975321
-3.064528	hanyar	-0.1120216
-4.135726	hanyarsa	-0.08989742
-3.536275	hanyoyi	-0.09355915
-3.403718	hanyoyin	-0.06469136
-4.135726	haorar	-0.1063739
-2.698099	har	-0.2793911
-4.135726	harabar	-0.1264928
-4.02511	haraji	-0.1052946
-3.621648	harajin	-0.1544792
-4.02511	haramta	-0.07904381
-4.135726	harare	-0.08989742
-4.02511	harba	-0.1250736
-4.02511	harbi	-0.08958787
-4.135726	harbin	-0.08989742
-4.02511	hare	-0.1250235
-4.02511	hargitsi	-0.1092808
-3.464958	hari	-0.1328842
-3.536275	harin	-0.08774588
-4.135726	harkar	-0.1267594
-4.135726	harkoki	-0.08989742
-2.950202	harkokin	-0.2824734
-4.135726	harsashi	-0.1194359
-3.869188	harshe	-0.08658993
-3.869188	harshen	-0.1263756
-4.135726	harsunan	-0.08961244
-4.135726	haruna	-0.1268766
-3.869188	hasara	-0.07683302
-4.135726	hasashen	-0.1268045
-4.135726	haskaka	-0.1169516
-3.728015	haske	-0.0625536
-4.02511	hasken	-0.2198994
-4.135726	hassan	-0.1268766
-4.135726	hasumiya	-0.120787
-4.135726	hasumiyar	-0.1259468
-3.621648	hatsi	-0.2305933
-4.135726	hatta	-0.1261726
-3.621648	hau	-0.2901924
-4.135726	hauhawar	-0.1268673
-3.464958	hausa	-0.3120336
-4.135726	hausawa	-0.1250646
-3.869188	hawa	-0.117431
-4.02511	hawan	-0.1249604
-4.135726	hayakin	-0.1266692
-4.135726	hayyaci	-0.1194359
-4.135726	hazo	-0.08989742
-4.135726	hebei	-0.1063739
-3.728015	hedkwatar	-0.1202311
-4.135726	hei	-0.1268766
-4.135726	helan	-0.1250646
-4.02511	henan	-0.1549987
-4.135726	heng	-0.1194359
-4.02511	hidima	-0.1831727
-4.02511	hidimar	-0.1262268
-4.135726	hidimomi	-0.1245889
-4.02511	hijira	-0.1135237
-3.621648	hikima	-0.120504
-3.536275	himma	-0.2318436
-4.135726	himmantar	-0.1063739
-4.02511	himmantu	-0.117053
-4.135726	himmantuwa	-0.1253589
-4.135726	himmar	-0.1266015
-4.02511	hira	-0.1028947
-4.02511	hirar	-0.1598615
-4.02511	hizbullah	-0.07528692
-4.135726	hki	-0.1235904
-4.02511	holand	-0.1831727
-4.135726	hong	-0.1268673
-3.869188	hongkong	-0.09545431
-3.464958	horar	-0.4017057
-4.02511	horo	-0.06748833
-4.135726	hosni	-0.1268766
-4.135726	hotel	-0.1194359
-3.869188	hoton	-0.1273959
-3.728015	hotuna	-0.1803681
-3.869188	hotunan	-0.1273959
-4.135726	hou	-0.1259919
-4.135726	house	-0.1194359
-3.621648	hu	-0.1781624
-4.02511	hua	-0.1193806
-4.02511	huabei	-0.1229174
-4.135726	huali	-0.1194129
-4.135726	huang	-0.1268271
-3.869188	hubbaren	-0.08858918
-4.135726	hubei	-0.1194359
-4.135726	huce	-0.08989742
-4.02511	huda	-0.1238038
-3.091506	hudu	-0.1119082
-4.135726	hugo	-0.1268766
-3.869188	hui	-0.1252147
-3.728015	hukuma	-0.08094755
-3.22014	hukumar	-0.1696469
-4.02511	hukumomi	-0.1252321
-3.728015	hukumomin	-0.0774848
-3.728015	hukunci	-0.1184907
-4.02511	hukuncin	-0.08986281
-3.728015	hula	-0.04803718
-4.02511	hular	-0.1259331
-3.184237	huldar	-0.2983595
-4.135726	hull	-0.1268766
-4.02511	hunan	-0.1397623
-4.135726	hunturu	-0.08175395
-4.135726	hurumin	-0.1268496
-4.135726	husaini	-0.1256077
-4.135726	husein	-0.1194129
-4.135726	huseini	-0.1194129
-4.135726	hussaini	-0.1259468
-4.02511	huta	-0.1242351
-4.135726	hutawa	-0.08989742
-4.02511	hutu	-0.1076907
-3.403718	ibada	-0.1797772
-4.135726	ibadan	-0.1218238
-3.869188	ibrahim	-0.1193483
-4.135726	ice	-0.1245436
-3.015132	idan	-0.144501
-4.135726	idanu	-0.1252005
-4.135726	iddi	-0.1268496
-4.135726	idi	-0.1268673
-3.621648	ido	-0.1124424
-4.135726	idoji	-0.1169516
-3.728015	idon	-0.08913507
-4.135726	igiyar	-0.08980894
-4.135726	ihu	-0.126421
-4.135726	ikirarin	-0.1266467
-4.135726	iko	-0.1235904
-3.350055	ikon	-0.09627078
-4.135726	ikonsu	-0.1194359
-4.135726	ila	-0.1266692
-3.184237	ilimi	-0.07422816
-3.091506	ilimin	-0.2091632
-4.02511	illa	-0.1225987
-4.135726	illar	-0.1063739
-4.135726	ilmi	-0.1169516
-3.464958	imam	-0.150739
-4.135726	imamus	-0.1268673
-4.02511	imani	-0.1032138
-3.184237	in	-0.08117475
-3.091506	ina	-0.09390458
-2.992393	inda	-0.2291401
-4.135726	india	-0.1063739
-3.728015	indiya	-0.09696444
-4.135726	indonesia	-0.1266467
-4.135726	indonisiya	-0.08989742
-3.728015	inganci	-0.06365037
-3.728015	ingancin	-0.1496891
-4.135726	ingancinsu	-0.1194129
-3.728015	inganta	-0.1173873
-4.135726	ingantawa	-0.1063739
-3.536275	ingila	-0.1727872
-4.02511	ingiza	-0.08913059
-4.135726	inji	-0.1247475
-4.135726	injuna	-0.08989742
-4.135726	injunan	-0.1268673
-4.135726	inshorar	-0.1266467
-4.135726	intabiyu	-0.1194359
-4.02511	intanet	-0.1831727
-3.869188	internet	-0.2023202
-4.135726	inuwar	-0.1259016
-3.869188	iraki	-0.1961072
-3.25928	iran	-0.1804511
-4.135726	iraniyawa	-0.1251778
-4.135726	iraq	-0.08989742
-3.403718	iri	-0.1506923
-2.635356	irin	-0.3476852
-4.02511	irinsa	-0.08462129
-4.135726	irinta	-0.1220656
-4.135726	irna	-0.1194359
-3.22014	isa	-0.08677046
-4.135726	isashen	-0.08989742
-3.350055	iska	-0.1593611
-4.135726	islama	-0.08989742
-4.02511	iso	-0.08644148
-3.064528	ita	-0.2509643
-4.02511	itace	-0.0861841
-4.02511	itacen	-0.1267276
-4.135726	italiya	-0.1063739
-3.728015	itatuwa	-0.1001907
-2.843762	iya	-0.1935964
-4.135726	iyaka	-0.1063739
-4.135726	iyakacin	-0.08952869
-3.728015	iyakar	-0.2013114
-4.02511	iyalai	-0.08801263
-4.135726	iyalan	-0.126782
-3.869188	iyalansa	-0.1653777
-4.135726	iyalansu	-0.1255172
-3.536275	iyali	-0.1159119
-3.869188	iyalin	-0.08970066
-3.869188	iyalinsa	-0.05215447
-3.869188	iyayen	-0.1864052
-4.135726	iznin	-0.1267594
-3.536275	ja	-0.07822556
-4.02511	jaddada	-0.1255758
-3.728015	jagora	-0.09973688
-3.728015	jagoran	-0.2053808
-3.536275	jagoranci	-0.106154
-4.135726	jagorancin	-0.1259557
-4.135726	jagorantar	-0.1265338
-4.135726	jahannama	-0.1268271
-4.135726	jahar	-0.1268766
-4.02511	jahilci	-0.1831727
-4.135726	jaje	-0.1245889
-4.02511	jajibirin	-0.08956331
-4.02511	jakada	-0.09853631
-3.869188	jakadan	-0.1380673
-4.135726	jakadanci	-0.126782
-4.135726	jakadiyar	-0.126579
-4.02511	jakar	-0.08944044
-3.728015	jam'iyyar	-0.08721213
-4.135726	jama	-0.1169516
-3.728015	jama'a	-0.09904686
-4.135726	jama'an	-0.126579
-3.728015	jama'ar	-0.1902459
-4.135726	jama'arsu	-0.1250646
-4.135726	jamhuriya	-0.120787
-4.135726	jamhuriyar	-0.126782
-4.02511	jami'an	-0.1260414
-4.02511	jami'in	-0.1239174
-4.135726	jamilah	-0.1268766
-3.536275	jamus	-0.0824327
-4.135726	jamusin	-0.1256529
-3.869188	jan	-0.08866304
-3.728015	janar	-0.1109125
-3.869188	janye	-0.1828932
-4.135726	janyo	-0.1268356
-3.728015	japan	-0.08778826
-4.135726	japanawa	-0.08989742
-4.02511	jarabawa	-0.08750431
-4.135726	jarabawar	-0.08989742
-4.02511	jari	-0.0637436
-4.02511	jaridar	-0.1251048
-4.135726	jaridu	-0.1194359
-3.869188	jaridun	-0.1234267
-3.728015	jarin	-0.1245375
-4.135726	jarirai	-0.1063739
-3.869188	jariri	-0.08636723
-4.135726	jarraba	-0.126782
-4.02511	jarrabawa	-0.08322739
-4.135726	jarrabawar	-0.08989742
-3.869188	jarumi	-0.1497603
-4.135726	jaruntaka	-0.08989742
-4.02511	jawabi	-0.08939128
-3.869188	jawabin	-0.1501526
-4.135726	jawad	-0.1256077
-3.25928	jawo	-0.1579715
-4.135726	jawowa	-0.08989742
-3.403718	je	-0.09018674
-4.135726	jefa	-0.1259242
-4.02511	jere	-0.0655295
-3.728015	jerin	-0.08852984
-3.064528	ji	-0.1079702
-4.135726	jia	-0.1063739
-4.135726	jiabao	-0.1092478
-4.135726	jianchao	-0.1194129
-4.02511	jiang	-0.1193806
-4.135726	jiangsu	-0.1063739
-3.621648	jiaozi	-0.09244155
-4.135726	jibge	-0.1268271
-4.135726	jiechi	-0.09851224
-4.135726	jigawa	-0.08989742
-3.869188	jigilar	-0.06664469
-4.135726	jigo	-0.08989742
-4.135726	jiha	-0.08989742
-3.151077	jihar	-0.2155892
-3.869188	jihohi	-0.1011374
-4.135726	jika	-0.1063739
-4.135726	jikan	-0.1268496
-3.728015	jiki	-0.1103438
-3.536275	jikin	-0.1222463
-3.869188	jikinsa	-0.1389514
-4.135726	jiku	-0.1169516
-4.135726	jilin	-0.08989742
-4.02511	jima	-0.1262086
-4.135726	jimawa	-0.1220656
-4.135726	jimla	-0.08989742
-3.536275	jimlar	-0.1544747
-3.015132	jin	-0.2609843
-4.135726	jing	-0.1255172
-3.464958	jini	-0.1121185
-4.02511	jinin	-0.1250057
-4.02511	jintao	-0.0850751
-4.02511	jira	-0.1166146
-3.403718	jiragen	-0.2089526
-4.02511	jiran	-0.1267233
-3.621648	jirgin	-0.122582
-4.135726	jirkitar	-0.1063739
-4.02511	jituwa	-0.1273959
-4.135726	jiu	-0.1267369
-3.728015	jiya	-0.1263345
-4.135726	jiyya	-0.08989742
-4.135726	john	-0.1268766
-4.135726	johnson	-0.1268673
-4.135726	jos	-0.120787
-4.135726	jumblatt	-0.1261275
-4.135726	jumhuriyar	-0.1268496
-4.135726	jun	-0.120787
-3.184237	juna	-0.06777467
-3.728015	junansu	-0.1102161
-4.135726	jundullah	-0.1252005
-3.464958	juya	-0.116817
-3.621648	juyin	-0.1179241
-2.893729	ka	-0.1215698
-4.02511	ka'ida	-0.09995398
-4.135726	ka'idar	-0.1268045
-4.135726	ka'idodi	-0.1063739
-4.135726	ka'idoji	-0.126263
-4.135726	ka'idojin	-0.1063739
-4.02511	kabaran	-0.08803728
-3.536275	kabari	-0.1842162
-3.3023	kabarin	-0.1734653
-3.728015	kabila	-0.2181033
-3.151077	kabilar	-0.1880696
-3.22014	kabilu	-0.1711246
-3.728015	kabilun	-0.09751385
-4.135726	kaburburan	-0.08989742
-4.135726	kace	-0.1268766
-3.25928	kada	-0.1377439
-4.02511	kadada	-0.1259557
-3.869188	kadai	-0.1193744
-4.135726	kadaici	-0.1194129
-3.403718	kadan	-0.1199577
-4.02511	kaddamar	-0.06748833
-4.135726	kaduna	-0.08985277
-2.992393	kafa	-0.1684025
-4.02511	kafar	-0.1265154
-3.621648	kafin	-0.1460027
-3.869188	kafofin	-0.1866485
-4.02511	kafu	-0.2168657
-4.135726	kafuor	-0.08989742
-4.02511	kafuwar	-0.1262945
-4.135726	kaga	-0.1268673
-4.135726	kagame	-0.08989742
-3.728015	kago	-0.08815333
-2.645204	kai	-0.1596091
-4.135726	kaidojin	-0.1267594
-4.135726	kaimi	-0.08317238
-4.02511	kaiwa	-0.1247339
-4.02511	kaka	-0.08175395
-4.135726	kakakin	-0.1268673
-4.135726	kakan	-0.1268766
-4.135726	kakanin	-0.1267143
-3.728015	kake	-0.09054707
-4.02511	kalandar	-0.08942562
-4.135726	kalilan	-0.1235904
-4.02511	kalla	-0.1831727
-4.135726	kalli	-0.1259468
-3.728015	kallo	-0.1143354
-4.02511	kallon	-0.1267909
-3.869188	kalma	-0.07239278
-4.02511	kalmar	-0.1265154
-3.869188	kalmomi	-0.08796781
-4.02511	kalubalantar	-0.1264074
-4.02511	kalubale	-0.1996492
-4.02511	kalubalen	-0.105413
-4.135726	kam	-0.1194129
-3.22014	kama	-0.09372558
-4.02511	kaman	-0.1080769
-2.828307	kamar	-0.2672745
-4.02511	kamarsu	-0.08944044
-3.869188	kamaru	-0.1273959
-3.621648	kamata	-0.08399258
-4.02511	kamfani	-0.08628313
-3.22014	kamfanin	-0.1546635
-3.621648	kamfanonin	-0.2107154
-3.536275	kammala	-0.1230897
-3.869188	kamshi	-0.07541385
-4.135726	kamshin	-0.1268673
-3.869188	kamu	-0.1653917
-4.02511	kamun	-0.2200798
-4.135726	kamuwa	-0.1063739
-2.373016	kan	-0.1224322
-3.536275	kana	-0.07681713
-4.135726	kanal	-0.1268766
-3.728015	kanana	-0.1119541
-3.22014	kananan	-0.2118609
-4.135726	kangiya	-0.1258564
-4.135726	kanka	-0.08989742
-4.02511	kankara	-0.0959292
-4.135726	kankiya	-0.1063739
-4.135726	kano	-0.08989742
-3.464958	kansa	-0.1196491
-3.22014	kansu	-0.2028294
-3.536275	kanta	-0.1387123
-4.02511	kanti	-0.1219378
-4.135726	kantin	-0.08989742
-4.135726	kantuna	-0.1245436
-4.135726	kanun	-0.1265564
-2.893729	kara	-0.1510247
-4.135726	karafa	-0.06748833
-4.135726	karama	-0.08989742
-3.536275	karamar	-0.1169437
-3.869188	karami	-0.1416365
-3.728015	karamin	-0.1338096
-4.135726	karancin	-0.1257297
-3.621648	karanta	-0.1203848
-4.135726	karantawa	-0.08989742
-4.02511	karar	-0.06748833
-4.02511	kararrawa	-0.07904381
-4.135726	karasa	-0.1259242
-4.135726	karate	-0.1194129
-3.25928	karatu	-0.2356602
-3.869188	karawa	-0.1832343
-3.869188	karba	-0.08616918
-3.403718	karbar	-0.1408046
-4.135726	karbe	-0.1248608
-4.135726	karbi	-0.1268673
-3.728015	karbuwa	-0.1390165
-3.464958	kare	-0.06875777
-3.403718	karfafa	-0.1038487
-3.403718	karfe	-0.08268288
-3.22014	karfi	-0.1070861
-3.25928	karfin	-0.1545479
-4.135726	kari	-0.1224939
-3.25928	karin	-0.1164892
-4.135726	kariya	-0.1245889
-4.02511	karkara	-0.1831727
-4.135726	karkarar	-0.08989742
-3.621648	karkashin	-0.2095546
-3.464958	karni	-0.4159713
-4.02511	karnin	-0.06748833
-3.403718	karo	-0.3304979
-3.536275	karshe	-0.148912
-3.869188	karshen	-0.1021885
-4.02511	karu	-0.06521777
-3.621648	karuwa	-0.05297834
-3.536275	karuwar	-0.1500742
-4.135726	karya	-0.1253589
-4.02511	karyata	-0.1227353
-2.509453	kasa	-0.3658111
-4.135726	kasahen	-0.1265113
-3.869188	kasaita	-0.08205258
-4.135726	kasala	-0.08462129
-3.403718	kasance	-0.1477388
-3.464958	kasancewa	-0.2199625
-4.135726	kasancewarsa	-0.1169516
-2.229333	kasar	-0.3307638
-3.621648	kasarsa	-0.07857007
-4.135726	kasarsu	-0.1259468
-4.02511	kasarta	-0.0888994
-2.876427	kasashe	-0.2605795
-2.745605	kasashen	-0.4299569
-3.064528	kashe	-0.1224026
-4.135726	kashegari	-0.1235994
-4.135726	kashenin	-0.1268766
-3.039128	kashi	-0.1683137
-3.536275	kashin	-0.05854508
-4.135726	kassim	-0.08989742
-3.869188	kasu	-0.0868867
-3.728015	kasuwa	-0.135624
-4.135726	kasuwan	-0.1252005
-3.464958	kasuwanci	-0.09508903
-3.869188	kasuwanni	-0.1492005
-4.02511	kasuwannin	-0.08966157
-3.728015	kasuwar	-0.1624971
-3.621648	katako	-0.1317909
-4.135726	katanga	-0.1253589
-3.869188	katangar	-0.1230629
-4.135726	katsina	-0.08989742
-3.869188	kau	-0.2645
-4.135726	kauce	-0.1260597
-4.02511	kaucewa	-0.1267953
-3.869188	kauna	-0.237659
-4.135726	kaunar	-0.08989742
-4.02511	kaunarsa	-0.1831727
-4.135726	kaunarsu	-0.1265338
-3.869188	kaura	-0.1589692
-4.02511	kaurar	-0.1996492
-3.728015	kauye	-0.1267269
-4.02511	kauyensa	-0.1236449
-3.464958	kauyuka	-0.1085899
-4.135726	kauyukan	-0.1063739
-4.135726	kawa	-0.120787
-3.120271	kawai	-0.1210017
-4.02511	kawance	-0.06748833
-4.135726	kawancen	-0.1266467
-3.536275	kawar	-0.3952597
-3.064528	kawo	-0.1597483
-3.869188	kaya	-0.110783
-3.039128	kayan	-0.2331546
-4.135726	kayatar	-0.1063739
-4.135726	kayatarwa	-0.08989742
-3.25928	kayayyaki	-0.2033015
-2.771461	kayayyakin	-0.3780486
-4.135726	kayayyakinsu	-0.1252005
-4.135726	kayyadde	-0.1268766
-3.869188	kayyade	-0.08821964
-4.135726	kaza	-0.08989742
-4.135726	kazak	-0.1266692
-4.135726	kazamin	-0.1265338
-2.524276	ke	-0.116699
-3.621648	kebe	-0.08638687
-4.02511	keken	-0.2200798
-4.135726	kekuna	-0.08989742
-4.02511	kenan	-0.1063405
-3.869188	kenya	-0.05813861
-3.464958	kera	-0.1292511
-4.135726	ketaifu	-0.1169516
-3.728015	ketare	-0.1371805
-4.135726	kewaya	-0.1266241
-3.869188	kewaye	-0.06711067
-4.135726	kewayen	-0.08989742
-4.02511	kewayensa	-0.08983349
-4.02511	khartoum	-0.08894862
-4.02511	ki	-0.1262398
-3.728015	kibiya	-0.09102996
-3.869188	kibiyoyi	-0.1040463
-3.536275	kida	-0.1565864
-3.464958	kidan	-0.3009956
-4.135726	kidayar	-0.1063739
-3.869188	kide	-0.1461412
-3.621648	kifaye	-0.1727872
-4.02511	kifi	-0.09851224
-4.135726	kifin	-0.1063739
-4.135726	kilo	-0.1263984
-3.869188	kilomita	-0.1492497
-4.135726	kima	-0.08939128
-3.621648	kimanin	-0.1260499
-4.135726	kimantawa	-0.1253136
-3.25928	kimiyya	-0.2313186
-4.02511	kin	-0.1266556
-4.135726	kinshasha	-0.08989742
-3.403718	kira	-0.1103795
-3.3023	kiran	-0.1131047
-3.728015	kiransa	-0.08947397
-4.135726	kiranshi	-0.1268673
-4.135726	kiransu	-0.126782
-4.135726	kirar	-0.1169516
-4.02511	kirari	-0.1831727
-4.135726	kirgiz	-0.08989742
-4.02511	kirista	-0.08801263
-3.728015	kirki	-0.1541424
-4.02511	kirkiro	-0.1234717
-4.135726	kisa	-0.1169516
-4.135726	kisan	-0.1268496
-3.536275	kishin	-0.4144924
-4.135726	kissar	-0.126782
-3.869188	kiwo	-0.07897829
-3.22014	kiwon	-0.2635256
-3.064528	kiyaye	-0.2759252
-2.625727	ko	-0.1116478
-3.869188	kofa	-0.1202807
-3.869188	kofar	-0.1230582
-4.135726	kofin	-0.1264887
-3.536275	kogi	-0.172554
-3.25928	kogin	-0.1567728
-3.621648	kogo	-0.1208014
-3.464958	kogon	-0.08429717
-3.621648	koguna	-0.1543756
-4.135726	kogunan	-0.126782
-3.621648	kokari	-0.1687891
-3.151077	kokarin	-0.09168131
-4.135726	kokarinmu	-0.1220656
-4.135726	kokarinsa	-0.08989742
-4.135726	kokarinsu	-0.1253589
-4.135726	kokarinta	-0.1253589
-4.135726	kokawa	-0.1063739
-3.728015	kolejin	-0.2207975
-4.135726	kolera	-0.120787
-3.621648	koli	-0.07651043
-3.621648	kolin	-0.08032021
-3.536275	koma	-0.1151179
-3.621648	komai	-0.09076845
-3.728015	komawa	-0.1336131
-3.536275	kome	-0.07704369
-4.135726	komfuta	-0.120787
-4.135726	komo	-0.08989742
-4.02511	kone	-0.1260235
-4.02511	kong	-0.1063405
-4.135726	konni	-0.1268766
-4.135726	korar	-0.1268673
-3.621648	kore	-0.09153257
-3.536275	korea	-0.1726592
-4.02511	koren	-0.2201024
-4.02511	kori	-0.126159
-4.135726	koriya	-0.120787
-4.02511	kos	-0.08175395
-4.135726	koshin	-0.1266015
-3.184237	kowa	-0.2050774
-4.02511	kowace	-0.1600134
-3.464958	kowane	-0.1639796
-4.135726	kowanen	-0.1268271
-4.02511	kowanensu	-0.1118092
-3.621648	koyar	-0.3446295
-3.869188	koyarwa	-0.05949951
-3.728015	koyi	-0.06357212
-3.536275	koyo	-0.2433932
-3.350055	koyon	-0.1166667
-3.536275	ku	-0.07831711
-4.135726	kubutar	-0.1063739
-3.728015	kudade	-0.09524572
-3.536275	kudaden	-0.2343593
-3.464958	kudancin	-0.1452803
-4.135726	kuddin	-0.1266692
-3.015132	kudi	-0.230365
-2.970786	kudin	-0.2040144
-4.135726	kudinta	-0.08989742
-3.25928	kudu	-0.1360518
-4.02511	kuduri	-0.126741
-3.869188	kudurin	-0.07670586
-3.536275	kujerar	-0.2227095
-4.02511	kuka	-0.1266959
-4.135726	kuke	-0.1259016
-3.151077	kula	-0.6756227
-4.135726	kulawa	-0.08989742
-3.869188	kulla	-0.1180717
-3.3023	kullum	-0.05993278
-2.127559	kuma	-0.118052
-4.02511	kun	-0.1266556
-3.869188	kuna	-0.1262357
-4.02511	kunar	-0.1831727
-4.02511	kundin	-0.08946501
-4.135726	kungiya	-0.120787
-3.120271	kungiyar	-0.1139361
-4.02511	kungiyoyi	-0.1228491
-3.869188	kungiyoyin	-0.08822942
-3.728015	kungurmin	-0.2026396
-4.135726	kunkuru	-0.1215362
-4.135726	kunlun	-0.08989742
-3.536275	kunna	-0.1827501
-4.135726	kunnen	-0.1268045
-4.135726	kunnuwan	-0.120787
-3.728015	kunshe	-0.1985015
-4.135726	kunshi	-0.1268271
-4.02511	kunun	-0.1063405
-4.02511	kura	-0.1207548
-4.135726	kurai	-0.1259468
-4.02511	kurar	-0.1158752
-4.135726	kurum	-0.1264661
-3.464958	kusa	-0.4026215
-3.3023	kusan	-0.08406995
-4.135726	kusantowar	-0.1263081
-4.135726	kuskure	-0.1169516
-3.184237	kuwa	-0.1276007
-4.135726	kuwait	-0.08018507
-4.02511	kuzari	-0.08462129
-4.135726	kwace	-0.1268673
-4.02511	kwadago	-0.1996492
-4.135726	kwado	-0.1046306
-4.02511	kwai	-0.1242578
-3.869188	kwaikwayo	-0.09023055
-4.135726	kwaikwayon	-0.08989742
-4.02511	kwale	-0.1063309
-4.135726	kwalejin	-0.08989742
-4.135726	kwalin	-0.1268766
-4.135726	kwallo	-0.1256529
-3.464958	kwallon	-0.09726671
-4.135726	kwallonshi	-0.08989742
-4.135726	kwamfiyuta	-0.08989742
-4.135726	kwamfuta	-0.1256077
-4.02511	kwaminis	-0.2140623
-4.135726	kwamishinar	-0.1266015
-3.536275	kwamitin	-0.09103869
-4.135726	kwamitocin	-0.1266015
-3.464958	kwana	-0.1189659
-3.536275	kwanaki	-0.1286497
-4.02511	kwanakin	-0.1061468
-4.02511	kwanan	-0.2199671
-4.135726	kwanar	-0.1266692
-4.135726	kwanciya	-0.1220656
-4.02511	kwanciyar	-0.1496428
-4.135726	kwando	-0.1194359
-4.02511	kwanon	-0.1259601
-4.135726	kwanta	-0.1169516
-4.135726	kwantar	-0.1268766
-2.859787	kwarai	-0.4120849
-3.869188	kwararowar	-0.2848404
-4.02511	kwararre	-0.116037
-3.621648	kwararru	-0.06761899
-4.135726	kwararrun	-0.1258564
-3.621648	kware	-0.1543618
-4.135726	kwarewa	-0.1063739
-4.135726	kwarewarsu	-0.1252005
-3.728015	kwari	-0.1235947
-4.02511	kwarin	-0.1267233
-4.02511	kwariya	-0.2126882
-4.135726	kwarjinin	-0.1268045
-3.728015	kwarya	-0.1649458
-4.02511	kwaryar	-0.1257523
-4.02511	kwashe	-0.1238038
-4.135726	kwaskwarima	-0.120787
-4.02511	kwaskwarimar	-0.08946501
-4.135726	kwastan	-0.120787
-4.02511	kwatanta	-0.1060995
-4.135726	kwayoyi	-0.1063739
-4.135726	kwayoyin	-0.1268045
-4.02511	kwazo	-0.06077198
-3.536275	kyakkyawan	-0.08915933
-3.728015	kyakkyawar	-0.1703466
-4.02511	kyale	-0.1173758
-4.135726	kyalle	-0.1253589
-4.135726	kyallen	-0.08989742
-4.135726	kyamarar	-0.120787
-4.135726	kyan	-0.08963701
-3.403718	kyau	-0.08199219
-3.464958	kyaun	-0.3186291
-3.536275	kyauta	-0.09590587
-3.869188	kyautar	-0.06726588
-3.536275	kyautata	-0.08140925
-4.135726	kyautatawa	-0.08989742
-4.02511	kyautatuwa	-0.1476489
-4.02511	kyautatuwar	-0.08826893
-4.02511	kyawawan	-0.1265923
-4.135726	la	-0.1268766
-4.135726	laba	-0.1263533
-3.091506	labarai	-0.3023276
-4.02511	labaran	-0.1264525
-3.464958	labari	-0.07926435
-3.3023	labarin	-0.08464918
-4.135726	labarinta	-0.08989742
-3.536275	labaru	-0.2713535
-3.728015	labarun	-0.08728675
-4.135726	lacca	-0.125879
-3.869188	ladabi	-0.2645
-4.135726	lafa	-0.1169516
-3.151077	lafiya	-0.2265635
-3.403718	lafiyar	-0.1435803
-4.135726	lahani	-0.1245889
-4.135726	lahanta	-0.1258564
-4.135726	lahira	-0.08989742
-4.02511	laifi	-0.1212532
-4.135726	laifuffukan	-0.1063739
-4.135726	lakabi	-0.1261726
-4.135726	lakabin	-0.1268766
-4.135726	lalace	-0.08989742
-4.135726	lalacewar	-0.1267369
-4.135726	lale	-0.08989742
-4.135726	lallacewar	-0.1265113
-3.621648	lallai	-0.06481526
-4.02511	lalle	-0.1437429
-3.869188	lama	-0.09546392
-3.728015	lamarin	-0.1204903
-4.02511	lamba	-0.1063405
-3.536275	lambar	-0.1789351
-4.135726	lambawan	-0.1169516
-4.02511	lambobin	-0.1994778
-4.02511	lambun	-0.2198994
-4.135726	lambuna	-0.08989742
-4.02511	lambunan	-0.1263622
-3.728015	lami	-0.4096664
-4.135726	lamido	-0.1194359
-4.135726	lamirin	-0.1259242
-4.135726	lamuni	-0.08989742
-4.135726	lang	-0.1194129
-4.135726	lanka	-0.1252005
-4.02511	lantarki	-0.03927666
-4.135726	lao	-0.1262178
-4.135726	laraba	-0.1258112
-4.135726	larabawa	-0.1063739
-3.25928	lardin	-0.1892067
-3.728015	larduna	-0.1820517
-4.02511	lardunan	-0.1063309
-4.135726	lasa	-0.1268271
-4.02511	lashe	-0.1864004
-4.135726	latin	-0.08989742
-4.135726	latsa	-0.1268496
-3.869188	launi	-0.11144
-3.464958	launin	-0.07364797
-4.135726	launinsu	-0.1268045
-4.135726	launuka	-0.08989742
-4.135726	lauya	-0.1169516
-4.135726	lauyoyin	-0.120787
-3.728015	layi	-0.1204483
-3.728015	layin	-0.1060473
-4.02511	lebanon	-0.08623362
-3.869188	leburin	-0.1495446
-4.135726	leken	-0.1268766
-4.02511	lhasa	-0.1190549
-3.621648	li	-0.1609176
-4.135726	lian	-0.08989742
-4.135726	liang	-0.08989742
-3.536275	liberia	-0.1362652
-4.02511	liberiya	-0.107768
-4.02511	likita	-0.115986
-4.02511	likitan	-0.1238493
-3.350055	likitanci	-0.1292631
-3.728015	likitancin	-0.1597117
-4.135726	likitoci	-0.08848087
-4.135726	likitocin	-0.1063739
-4.135726	lin	-0.1159446
-4.02511	lissafi	-0.06748833
-4.135726	litattafai	-0.1063739
-4.135726	littafai	-0.1220656
-3.869188	littafi	-0.104645
-3.464958	littafin	-0.1044483
-4.135726	littattafai	-0.1260823
-4.02511	littattafan	-0.06748833
-3.403718	liu	-0.3055163
-4.135726	liyafa	-0.08803728
-3.869188	liyafar	-0.166078
-3.120271	lokaci	-0.09417696
-2.859787	lokacin	-0.2628398
-4.135726	lokuta	-0.08989742
-3.869188	lokutan	-0.1039988
-4.135726	london	-0.1265338
-4.02511	lu	-0.123313
-4.135726	lula	-0.1268766
-4.135726	lumana	-0.08907163
-4.135726	lura	-0.1249288
-4.135726	lushan	-0.1245436
-2.771461	ma	-0.1338503
-4.135726	ma'abuta	-0.1268766
-4.135726	ma'adinai	-0.1194359
-4.135726	ma'aikata	-0.120787
-3.869188	ma'aikatan	-0.1058296
-4.02511	ma'aikatar	-0.1261138
-4.135726	ma'ana	-0.1235904
-4.135726	ma'auni	-0.1194129
-3.728015	mabiyan	-0.1335639
-4.135726	mabiyansa	-0.1236586
-4.135726	mabudin	-0.1266015
-3.869188	macao	-0.06537366
-3.728015	mace	-0.0587457
-3.869188	maciji	-0.1584198
-4.02511	madagascar	-0.09995398
-3.869188	madam	-0.1521434
-4.135726	madara	-0.1234996
-4.135726	madatsar	-0.1263984
-4.135726	madaukaki	-0.1268766
-4.135726	madubi	-0.08989742
-3.869188	madugu	-0.1408498
-4.135726	mafani	-0.1063739
-4.135726	mafarin	-0.08989742
-3.728015	mafarki	-0.07981828
-3.039128	mafi	-0.1789196
-3.350055	magana	-0.09518519
-3.728015	maganar	-0.06023616
-4.135726	maganarta	-0.120787
-4.135726	magance	-0.08989742
-4.135726	maganganu	-0.08801263
-3.869188	maganganun	-0.06731761
-3.350055	magani	-0.1713267
-3.728015	maganin	-0.1179535
-3.621648	magunguna	-0.08618023
-3.403718	magungunan	-0.2181213
-4.135726	mahaifina	-0.08989742
-4.135726	mahaifinka	-0.1252457
-3.869188	mahaifinsa	-0.2480235
-4.135726	mahaifinta	-0.1266241
-4.135726	mahaifiyarsa	-0.1259468
-4.135726	mahalarta	-0.1263081
-4.135726	mahalartan	-0.1263081
-4.135726	mahaluki	-0.1169516
-4.02511	mahara	-0.1207548
-4.02511	mahmoud	-0.2201426
-4.135726	mahukunta	-0.1255172
-4.135726	mahukuntan	-0.1263081
-2.106889	mai	-0.2465175
-4.135726	maida	-0.1267594
-4.135726	maiji	-0.08989742
-4.02511	maimakon	-0.1252999
-4.135726	majalisa	-0.126579
-3.151077	majalisar	-0.1827595
-3.869188	majalisun	-0.08922368
-4.135726	majiyar	-0.126782
-4.135726	majiyyata	-0.08989742
-3.728015	maka	-0.1098495
-3.728015	makada	-0.1128488
-3.728015	makamai	-0.06776191
-3.728015	makaman	-0.2190502
-4.135726	makamancin	-0.126579
-4.135726	makamantansu	-0.08989742
-3.869188	makamashi	-0.1320374
-3.728015	makamashin	-0.2394
-3.536275	makaranta	-0.05125362
-4.02511	makarantar	-0.08981818
-3.869188	makarantu	-0.2480235
-3.728015	makarantun	-0.177476
-4.135726	makasudin	-0.1256077
-4.135726	makin	-0.1063739
-4.135726	makirci	-0.08989742
-4.02511	makiyaya	-0.1132076
-4.135726	makiyayai	-0.1253136
-4.02511	mako	-0.07904381
-4.02511	makoma	-0.0861841
-3.728015	makomar	-0.1258922
-4.135726	makon	-0.1252005
-4.135726	makonnin	-0.1259919
-4.02511	malala	-0.07640269
-4.135726	malalan	-0.1234996
-4.135726	malalar	-0.1234996
-3.464958	malam	-0.1580096
-4.135726	malama	-0.1220656
-4.135726	malamai	-0.1063739
-4.02511	malaman	-0.1260188
-3.621648	malami	-0.1449116
-3.869188	malamin	-0.08158875
-4.135726	malasiya	-0.08989742
-4.135726	mali	-0.08989742
-3.728015	mallaka	-0.152728
-3.621648	mallakar	-0.177555
-4.02511	mallaki	-0.1268448
-4.135726	mallam	-0.1268766
-3.536275	mamaki	-0.1905745
-3.869188	mamaye	-0.1684095
-4.135726	mamban	-0.1266015
-4.135726	mambobi	-0.08989742
-4.135726	mambobin	-0.126782
-3.728015	man	-0.1267317
-3.464958	mana	-0.1085528
-4.02511	manas	-0.1227581
-4.135726	mandela	-0.1194129
-4.02511	manema	-0.2198317
-4.135726	maneman	-0.126782
-4.135726	manhajar	-0.08989742
-3.25928	manoma	-0.1932292
-4.02511	manoman	-0.08788932
-4.02511	manomi	-0.116037
-4.135726	manta	-0.1063739
-3.869188	manufa	-0.1234267
-3.621648	manufar	-0.06505107
-3.869188	manufofi	-0.04724217
-3.621648	manufofin	-0.06167408
-4.135726	manufofinta	-0.1063739
-3.621648	manya	-0.4863487
-2.828307	manyan	-0.167969
-4.135726	manzo	-0.1194359
-3.869188	manzon	-0.1264615
-4.135726	mao	-0.1194359
-4.135726	maonan	-0.08989742
-4.135726	maqian	-0.1194129
-3.621648	maraba	-0.4863487
-4.135726	marabtar	-0.1267594
-3.464958	maras	-0.150227
-3.728015	marasa	-0.1335148
-4.135726	marayu	-0.1268673
-4.135726	marigayi	-0.08983349
-4.135726	marigayin	-0.1169516
-4.02511	maris	-0.05219186
-4.135726	marovee	-0.1220656
-4.135726	martaba	-0.08989742
-4.02511	marubuci	-0.08628313
-4.135726	maryam	-0.1268673
-3.184237	masa	-0.1306427
-4.135726	masallaci	-0.1252457
-3.869188	masallacin	-0.0897989
-4.02511	masallatai	-0.06748833
-4.135726	masallatan	-0.1258564
-3.728015	masana	-0.07720488
-4.135726	masana'antar	-0.1259468
-4.02511	masana'antu	-0.05890938
-3.869188	masana'antun	-0.1682463
-4.02511	masanan	-0.1264074
-4.135726	masanin	-0.1265564
-4.02511	masar	-0.05919899
-4.02511	masara	-0.1061941
-4.135726	masarautar	-0.08989742
-4.02511	masaukin	-0.126159
-3.728015	mashahurin	-0.0859313
-4.135726	mashigar	-0.1266692
-3.728015	mashigin	-0.1830351
-4.135726	maslahar	-0.1268496
-3.869188	maso	-0.2327979
-4.135726	massar	-0.09489645
-4.135726	masters	-0.08989742
-2.400476	masu	-0.2016571
-2.950202	mata	-0.1192084
-4.02511	matafiya	-0.1228719
-3.621648	mataimakin	-0.1613113
-4.02511	mataimakiyar	-0.1267635
-3.728015	matakai	-0.06492645
-3.869188	matakan	-0.1062081
-3.728015	mataki	-0.1541368
-3.728015	matakin	-0.104763
-4.135726	matalauta	-0.08989742
-3.621648	matan	-0.1634886
-4.135726	matanin	-0.1268045
-3.728015	matar	-0.1236175
-3.869188	matarsa	-0.1046005
-3.869188	matasa	-0.1189951
-4.135726	matsa	-0.1268271
-3.728015	matsala	-0.202394
-3.403718	matsalar	-0.2353103
-4.02511	matsaloli	-0.1389514
-4.135726	matsalolin	-0.1063739
-4.135726	matsaya	-0.1263533
-3.403718	matsayi	-0.364569
-3.22014	matsayin	-0.1786137
-4.135726	matsayinsa	-0.1194359
-4.02511	matsayinsu	-0.1160139
-3.869188	matsayinta	-0.1148306
-4.135726	matsuguni	-0.1169516
-4.02511	matuka	-0.1273959
-3.728015	matukar	-0.08931246
-4.135726	mauritania	-0.1194129
-4.135726	mauritaniya	-0.08172894
-4.135726	mauritius	-0.08989742
-3.728015	mawaka	-0.05815455
-4.02511	mawaki	-0.1118092
-4.02511	mawuyacin	-0.1496674
-3.869188	mayakan	-0.1265061
-3.350055	mayar	-0.4096223
-4.135726	mayu	-0.08021017
-3.25928	maza	-0.1029786
-3.536275	mazauna	-0.07998893
-3.728015	mazaunan	-0.08869743
-4.135726	mazaunin	-0.1263081
-4.135726	mbeki	-0.1247475
-3.536275	me	-0.1613822
-4.135726	media	-0.1268271
-4.135726	meles	-0.1194129
-4.135726	membobin	-0.126579
-3.728015	mene	-0.4066553
-4.02511	menene	-0.1193712
-4.135726	metan	-0.1169516
-4.135726	miao	-0.0842085
-4.135726	microsoft	-0.08989742
-4.02511	midil	-0.08322739
-4.02511	miji	-0.1189401
-4.02511	mijina	-0.1256166
-4.135726	mijinta	-0.1063739
-3.869188	mika	-0.1988907
-4.135726	mike	-0.1268496
-3.25928	miliyan	-0.1459379
-4.02511	milliyan	-0.08850043
-4.135726	mindar	-0.08959763
-4.02511	ming	-0.04411054
-3.869188	mini	-0.1246975
-3.728015	minista	-0.1119771
-3.403718	ministan	-0.3014933
-4.135726	ministoci	-0.1169516
-4.02511	minti	-0.1252999
-4.135726	mintoci	-0.1260823
-4.135726	mirror	-0.120787
-3.403718	misali	-0.06088863
-4.02511	misalin	-0.1243348
-2.813383	mista	-0.9696518
-3.536275	mita	-0.2014351
-4.135726	miya	-0.1063739
-4.135726	mogae	-0.1063739
-4.135726	mogao	-0.08175395
-4.135726	mohammed	-0.1268766
-4.135726	mongolia	-0.08989742
-3.869188	mongoliya	-0.143135
-4.135726	more	-0.1268496
-4.135726	morgan	-0.1268766
-4.02511	moriya	-0.1038943
-3.728015	moriyar	-0.2394451
-4.135726	moriyarsu	-0.08989742
-4.02511	morocco	-0.06748833
-4.135726	moryar	-0.1266241
-4.02511	mota	-0.05605238
-4.135726	motar	-0.1063739
-3.869188	motoci	-0.1273959
-3.869188	motocin	-0.0669554
-3.869188	motsa	-0.2849532
-4.135726	motsi	-0.1253589
-4.135726	mottaki	-0.1194129
-4.02511	mr	-0.1831727
-2.930551	mu	-0.1065472
-4.135726	mu'amala	-0.1063739
-4.135726	mubarak	-0.1256077
-4.135726	mudassiru	-0.1268766
-4.135726	muddin	-0.1261275
-4.135726	mugun	-0.1267143
-3.403718	muhalli	-0.1819625
-4.02511	muhallin	-0.08575784
-3.869188	muhammad	-0.08002308
-4.02511	muhammadu	-0.1252547
-4.135726	muhawara	-0.1234996
-3.621648	muhimman	-0.1499904
-3.536275	muhimmanci	-0.1721414
-4.02511	muhimmancin	-0.08986281
-3.350055	muhimmin	-0.1479066
-3.621648	muhimmiyar	-0.1423455
-4.02511	muka	-0.1259601
-4.135726	mukam	-0.08989742
-4.135726	mukaman	-0.1268496
-4.02511	mukami	-0.1170299
-4.02511	mukamin	-0.08985277
-3.728015	muke	-0.08662449
-3.621648	muku	-0.1331056
-3.403718	mulki	-0.1137321
-2.992393	mulkin	-0.2260808
-4.135726	mulkinta	-0.08989742
-4.135726	mumbengewi	-0.1194129
-3.350055	mun	-0.1238844
-3.403718	muna	-0.09541239
-4.135726	mundia	-0.1268766
-4.135726	mura	-0.120787
-4.135726	murar	-0.1268496
-4.135726	murhu	-0.1258564
-3.869188	murkushe	-0.1496919
-4.02511	murmushi	-0.08961244
-3.536275	murna	-0.05648185
-3.621648	murnar	-0.1605047
-4.02511	murya	-0.1242124
-3.350055	muryar	-0.1331902
-4.02511	musa	-0.08982822
-2.970786	musamman	-0.2929759
-4.135726	musanta	-0.1268766
-4.02511	musanya	-0.07904381
-4.135726	musanyar	-0.1267594
-4.135726	musaya	-0.1063739
-4.135726	musayar	-0.08989742
-4.135726	musaye	-0.1268766
-4.135726	musayen	-0.1268271
-4.02511	musharraf	-0.1118092
-4.135726	mustapha	-0.08989742
-3.25928	musu	-0.06084829
-4.02511	musulmai	-0.1192155
-4.135726	musulman	-0.1268766
-3.464958	musulmi	-0.03650925
-4.135726	musulmin	-0.1268766
-3.621648	musulunci	-0.08715148
-4.135726	musunta	-0.1256077
-2.616307	mutane	-0.2725207
-3.015132	mutanen	-0.227881
-4.135726	mutanensa	-0.1194129
-3.536275	mutu	-0.1155036
-3.151077	mutum	-0.1779207
-4.02511	mutumi	-0.0893667
-3.621648	mutumin	-0.1260359
-3.728015	mutun	-0.1286354
-4.02511	mutuwa	-0.1088908
-4.135726	mutuwar	-0.1245752
-4.135726	mutuwarsa	-0.08989742
-1.768052	na	-0.1595986
-4.135726	nace	-0.1169516
-3.464958	nada	-0.1464205
-4.135726	nadin	-0.126579
-4.135726	nagari	-0.1063739
-4.02511	nagartattun	-0.1248698
-4.135726	nahiya	-0.1258112
-3.464958	nahiyar	-0.3157439
-4.02511	naira	-0.2189282
-4.135726	najad	-0.1194129
-3.464958	najeriya	-0.1641456
-4.135726	najeriyar	-0.1266241
-3.621648	nakasassu	-0.1069025
-3.728015	nake	-0.1043171
-4.02511	nama	-0.0959292
-3.728015	naman	-0.23963
-4.02511	namibiya	-0.1598615
-3.869188	namiji	-0.1016873
-4.135726	namijin	-0.1267727
-4.135726	namun	-0.126782
-2.406183	nan	-0.2534716
-4.135726	nanjing	-0.08989742
-4.02511	narke	-0.1866126
-3.869188	nasa	-0.08272333
-3.403718	nasara	-0.1989542
-4.02511	nasarar	-0.1254989
-4.135726	nasarori	-0.1169516
-3.869188	nasu	-0.112658
-3.536275	nata	-0.1037714
-4.135726	nato	-0.120787
-4.135726	naurarka	-0.120787
-4.02511	nauyi	-0.08175395
-3.869188	nauyin	-0.1039037
-4.135726	nauyinsu	-0.1194129
-3.728015	nawa	-0.1674741
-3.536275	nazari	-0.1432633
-3.3023	nazarin	-0.1835167
-2.11858	ne	-0.2114776
-3.869188	nema	-0.08273839
-3.015132	neman	-0.1398749
-4.135726	nemawa	-0.08989742
-3.728015	nemi	-0.1605542
-4.02511	nepal	-0.1831727
-4.02511	nesa	-0.06537366
-3.184237	ni	-0.09177995
-4.135726	ni'ima	-0.08989742
-3.869188	niger	-0.1497704
-3.728015	nigeria	-0.1607636
-3.536275	nijar	-0.1351148
-4.135726	nijer	-0.1252005
-3.621648	nijeriya	-0.2110662
-4.135726	nil	-0.08000929
-4.135726	nilu	-0.08989742
-4.135726	ningbo	-0.1063739
-4.135726	ningxia	-0.08989742
-4.135726	ninka	-0.1063739
-4.135726	ninki	-0.08989742
-3.728015	nisa	-0.1607636
-4.135726	nisan	-0.1063739
-3.728015	nishadi	-0.2158459
-4.135726	nitsar	-0.1063739
-4.135726	niu	-0.1268766
-4.135726	niyya	-0.08989742
-3.869188	niyyar	-0.08856454
-4.135726	nobel	-0.08989742
-3.536275	noma	-0.1029294
-4.02511	noman	-0.1268356
-4.135726	nono	-0.1185265
-4.135726	npc	-0.1194129
-4.135726	nu	-0.1260597
-3.728015	nufi	-0.1786789
-3.464958	nufin	-0.1401491
-4.135726	nuhu	-0.1194129
-4.135726	nujoma	-0.1194129
-3.350055	nukiliya	-0.166254
-4.135726	nukiliyar	-0.1266692
-2.733233	nuna	-0.2009214
-4.135726	nunawa	-0.08989742
-4.135726	nuni	-0.1063739
-4.135726	nunin	-0.1268496
-4.135726	nuwamba	-0.1159677
-3.536275	obama	-0.1314379
-4.135726	obasanjo	-0.1160139
-4.135726	odinga	-0.126421
-3.728015	ofishin	-0.08380517
-4.135726	ofisoshi	-0.1169516
-4.135726	ofisoshin	-0.1268766
-4.135726	okello	-0.1268766
-4.135726	oktoba	-0.08175395
-4.135726	olimpic	-0.0897643
-4.135726	olmert	-0.1194129
-4.02511	olusegun	-0.2201519
-3.869188	olympic	-0.1321981
-4.02511	olympics	-0.1470663
-4.135726	omar	-0.1268766
-3.621648	opera	-0.1233457
-4.135726	oryem	-0.08989742
-3.869188	otel	-0.1061325
-4.02511	pacific	-0.1045356
-3.403718	pakistan	-0.2249007
-3.869188	palasdinawa	-0.1496919
-4.135726	palastine	-0.1194359
-4.02511	panda	-0.1054604
-4.135726	paris	-0.08175395
-4.135726	parvez	-0.1268673
-4.135726	pasific	-0.1259919
-4.02511	paul	-0.1267727
-4.135726	peach	-0.1256529
-4.135726	philippines	-0.1252457
-4.02511	piano	-0.1027993
-4.135726	pillow	-0.1259919
-4.135726	pine	-0.1258564
-4.135726	pingyao	-0.1194359
-4.135726	piraministan	-0.1243395
-4.135726	piying	-0.08989742
-4.135726	player	-0.08989742
-4.135726	podcast	-0.126782
-4.02511	poland	-0.1176753
-4.135726	portugal	-0.1255172
-4.135726	potala	-0.1252457
-4.135726	pudong	-0.120787
-4.135726	pumi	-0.1266918
-3.728015	qi	-0.1138398
-3.728015	qin	-0.1095904
-3.621648	qing	-0.06018858
-4.02511	qingdao	-0.0655295
-4.02511	qinghai	-0.06748833
-4.135726	qu	-0.1267594
-4.135726	ra	-0.1268766
-4.135726	ra'ayi	-0.1256529
-4.135726	ra'ayin	-0.1243395
-4.135726	ra'ayoyi	-0.08989742
-4.135726	ra'ayoyin	-0.1268673
-4.02511	raba	-0.2181361
-4.135726	rabi	-0.08989742
-3.621648	rabin	-0.08921859
-4.135726	rabo	-0.1260371
-4.135726	rabonta	-0.1194129
-4.135726	rabu	-0.1063739
-4.135726	rabuwa	-0.1063739
-4.135726	rada	-0.1266241
-4.135726	radio	-0.1268673
-3.350055	rage	-0.07916007
-3.869188	ragu	-0.1235188
-4.135726	raguwa	-0.08989742
-3.869188	raguwar	-0.1266597
-3.869188	rahama	-0.0648278
-4.02511	rahotanni	-0.1170299
-4.02511	rahotannin	-0.1259105
-4.02511	rahoton	-0.1178686
-4.135726	rahotonnin	-0.1063739
-3.403718	rai	-0.1323034
-3.621648	rairayi	-0.1698237
-4.135726	rajista	-0.1259468
-4.135726	raka	-0.1247475
-4.135726	rakumai	-0.1248608
-4.02511	rakumi	-0.1193942
-4.135726	ramadan	-0.08989742
-3.536275	ramin	-0.08725643
-3.728015	ramuka	-0.05659339
-4.02511	ramukan	-0.1262719
-3.536275	ran	-0.1487045
-3.184237	rana	-0.06683572
-3.464958	ranar	-0.1034273
-3.869188	rancen	-0.185931
-4.135726	rangadin	-0.1266015
-4.135726	rani	-0.1135565
-4.02511	ransa	-0.1182046
-4.135726	rantse	-0.1265564
-4.135726	rantsuwar	-0.1266467
-4.135726	rarar	-0.1264887
-4.135726	rarraaba	-0.1063739
-4.135726	rarraba	-0.1260597
-3.536275	rasa	-0.104743
-3.464958	rasha	-0.1658238
-4.135726	rashawa	-0.08623362
-3.621648	rashin	-0.08720723
-4.02511	rasu	-0.1263212
-4.02511	rataya	-0.2201249
-4.135726	rataye	-0.1169516
-4.02511	rauni	-0.07220367
-4.135726	raunuka	-0.08989742
-3.536275	rawa	-0.1413989
-4.02511	rawar	-0.1063405
-4.02511	rawaya	-0.1996492
-4.135726	rawayan	-0.126782
-4.02511	rawayen	-0.08963701
-3.151077	raya	-0.1188934
-4.135726	rayar	-0.1243395
-3.869188	raye	-0.2480235
-4.02511	rayukan	-0.2191316
-3.869188	rayuwa	-0.1438869
-4.02511	rayuwar	-0.08813021
-3.728015	rayuwarsa	-0.2010404
-4.02511	rayuwarsu	-0.09851224
-4.135726	rayuwarta	-0.08989742
-4.135726	real	-0.1268766
-4.135726	rediyo	-0.1063739
-4.135726	rediyon	-0.1243395
-4.135726	ren	-0.1261726
-4.135726	rena	-0.1266467
-4.135726	renminbi	-0.1267594
-4.02511	renon	-0.2198768
-3.22014	rera	-0.2791086
-4.02511	reshen	-0.1265379
-4.135726	reza	-0.1268766
-4.135726	riba	-0.1249288
-4.135726	rida	-0.1169516
-3.350055	riga	-0.08326609
-4.02511	rigakafi	-0.0648278
-4.135726	rigakafin	-0.08989742
-4.135726	rigar	-0.08989742
-4.135726	rigimar	-0.126782
-4.135726	rijau	-0.08989742
-3.728015	rijiya	-0.125727
-4.135726	rijiyoyi	-0.1194129
-4.02511	rike	-0.0897107
-3.536275	rikici	-0.1031149
-4.02511	rikicin	-0.1263848
-4.135726	rikon	-0.1268271
-4.135726	rilwanu	-0.1268766
-4.135726	rina	-0.1063739
-4.135726	rinjaye	-0.1252005
-4.135726	robert	-0.1268766
-4.135726	roger	-0.1268766
-4.135726	roki	-0.08989742
-4.02511	rokon	-0.1831727
-4.135726	rokonsu	-0.1194359
-4.135726	rong	-0.125879
-4.135726	rotary	-0.08989742
-4.02511	rubanya	-0.08961244
-4.135726	rubewan	-0.1268766
-4.135726	rubuce	-0.1220656
-3.151077	rubuta	-0.1701124
-4.135726	rubutattun	-0.08989742
-3.728015	rubutu	-0.06131256
-3.728015	rubutun	-0.1327521
-3.869188	rufa	-0.2849306
-3.621648	rufe	-0.1390211
-4.135726	rukuni	-0.1268766
-3.869188	rukunin	-0.2833039
-3.403718	rundunar	-0.1754176
-3.869188	rushe	-0.08969589
-4.135726	rutsa	-0.1063739
-2.930551	ruwa	-0.2501762
-4.135726	ruwaito	-0.1267594
-3.039128	ruwan	-0.1610158
-4.02511	ruwanda	-0.06744134
-4.135726	ruwanta	-0.1063739
-4.02511	ruwayoyi	-0.2184531
-4.135726	rwanda	-0.1259468
-4.135726	ryan	-0.1268766
-4.02511	s	-0.1831727
-2.992393	sa	-0.1109843
-4.02511	sa'adu	-0.2201519
-4.135726	sa'an	-0.1252005
-4.135726	sa'o'i	-0.1268045
-3.869188	saba	-0.1114559
-4.135726	sababbin	-0.1267369
-4.135726	sabain	-0.1245436
-4.135726	sabani	-0.1253589
-3.869188	sabanin	-0.1053797
-4.135726	sabawa	-0.1268045
-3.350055	sabbin	-0.1049994
-4.02511	sabili	-0.1996492
-2.950202	sabo	-0.8091911
-3.064528	saboda	-0.1905867
-3.120271	sabon	-0.1468341
-4.135726	sabulu	-0.1256077
-3.015132	sabuwar	-0.2849793
-4.02511	sace	-0.1237584
-4.135726	sacko	-0.1194129
-4.02511	sada	-0.1268178
-3.869188	sadarwa	-0.1046005
-4.135726	sadaukar	-0.1063739
-4.135726	sadik	-0.1169516
-4.135726	sadu	-0.1169516
-4.135726	saduwa	-0.08989742
-4.135726	safai	-0.1167531
-4.135726	safe	-0.05327779
-4.135726	sahab	-0.08989742
-4.135726	sahihanci	-0.08989742
-4.135726	sahihiyar	-0.1268673
-4.135726	sahihiyyar	-0.1268045
-4.135726	sahon	-0.126421
-2.448379	sai	-0.2159708
-4.02511	sajjad	-0.2102269
-3.621648	saka	-0.1138621
-3.350055	sakamako	-0.1141027
-3.3023	sakamakon	-0.1492105
-4.135726	sakamamko	-0.1234996
-4.135726	sakan	-0.1243395
-4.135726	sakandare	-0.1253589
-4.135726	sakar	-0.1265113
-4.135726	sakataren	-0.1264436
-3.091506	sake	-0.1128943
-4.135726	sakewa	-0.1268271
-4.135726	saki	-0.1258427
-3.869188	sako	-0.1130166
-3.869188	sakon	-0.1707577
-4.02511	salam	-0.1061941
-4.135726	salamu	-0.1268673
-4.135726	saleh	-0.1268766
-3.728015	salla	-0.1356605
-4.02511	sallah	-0.07904381
-4.135726	sallame	-0.08989742
-4.02511	sallar	-0.08980894
-4.02511	salo	-0.08883027
-3.728015	salon	-0.06631778
-4.135726	salou	-0.1268766
-4.02511	salula	-0.1389514
-4.135726	salular	-0.1263533
-3.120271	sama	-0.1857621
-4.02511	saman	-0.1245299
-4.02511	samaniya	-0.05492017
-3.015132	samar	-0.5222167
-3.728015	samari	-0.1757583
-4.135726	samarwa	-0.08989742
-3.728015	same	-0.1294399
-4.02511	samfurin	-0.08885019
-3.184237	sami	-0.1535786
-4.135726	samo	-0.08989742
-2.950202	samu	-0.1076384
-2.771461	samun	-0.1907015
-4.135726	samun'yan	-0.126782
-4.135726	samunsu	-0.08929295
-3.403718	san	-0.08718547
-3.869188	sanadin	-0.08964677
-4.135726	sanadiyar	-0.08989742
-4.135726	sanannen	-0.1267594
-4.135726	sanannun	-0.08989742
-3.621648	sanar	-0.4863487
-4.02511	sanarwa	-0.1247339
-4.02511	sanarwar	-0.1220335
-3.728015	sanda	-0.1110532
-4.135726	sandan	-0.1255213
-4.02511	sangandale	-0.1207548
-3.403718	sani	-0.1018333
-3.869188	sanin	-0.1861569
-3.728015	sannan	-0.07024522
-3.869188	sannu	-0.2750777
-4.135726	sansani	-0.1235904
-4.02511	sansanin	-0.1262719
-3.403718	sanya	-0.1696714
-4.135726	sanyawa	-0.1266692
-4.135726	sanye	-0.1063739
-3.403718	sanyi	-0.1225552
-3.728015	sarakuna	-0.1525082
-4.02511	sarakunan	-0.1239174
-3.728015	sararin	-0.1229714
-4.135726	sarauniyar	-0.1268673
-3.621648	sarauta	-0.1116495
-3.464958	sarautar	-0.1133127
-3.728015	sarewa	-0.06960787
-2.859787	sarki	-0.2470669
-3.151077	sarkin	-0.1842808
-3.536275	sarrafa	-0.1161986
-4.135726	sarrafawa	-0.1169516
-4.135726	sashe	-0.1194359
-3.536275	sashen	-0.1134363
-4.135726	sassa	-0.08989742
-3.869188	sassaka	-0.05591416
-3.536275	sassan	-0.08555755
-4.02511	sassauta	-0.08958787
-4.02511	satar	-0.1264343
-4.135726	satumba	-0.08175395
-3.536275	sau	-0.2069989
-4.135726	saudi	-0.1268766
-4.135726	saudiyya	-0.08989742
-3.621648	sauka	-0.1479378
-4.135726	saukaka	-0.1264887
-4.02511	saukar	-0.1061941
-3.621648	sauki	-0.1723911
-4.02511	saukin	-0.1267276
-3.869188	sauko	-0.2645
-4.135726	saura	-0.1242804
-3.091506	sauran	-0.1411805
-3.728015	sauransu	-0.08899656
-4.02511	saurara	-0.08754387
-4.135726	saurarar	-0.1259016
-4.135726	saurare	-0.1132306
-4.135726	saurarenmu	-0.08989742
-4.02511	saurari	-0.08880097
-4.02511	sauraro	-0.1213899
-4.135726	sauraronmu	-0.1250646
-4.135726	sauraronsa	-0.1063739
-3.869188	saurayi	-0.09574006
-4.135726	saurayin	-0.08989742
-3.536275	sauri	-0.1265387
-3.464958	saurin	-0.1263914
-3.728015	sauro	-0.05865544
-4.135726	sauron	-0.1063739
-4.02511	sauti	-0.09632604
-4.02511	sauya	-0.1264477
-4.02511	sauyawa	-0.08322739
-4.02511	sauye	-0.1248876
-4.135726	sauyi	-0.1169516
-4.02511	sauyin	-0.1059576
-4.135726	sawun	-0.1268271
-4.135726	saya	-0.1169516
-3.536275	sayar	-0.3944551
-4.02511	saye	-0.08986281
-4.135726	sayen	-0.1266692
-3.869188	sayi	-0.1259013
-4.02511	senegal	-0.1831727
-3.120271	sha	-0.06372355
-4.135726	shabab	-0.08989742
-4.02511	shafa	-0.1114493
-4.02511	shafar	-0.1260461
-3.536275	shafe	-0.2456163
-3.621648	shafi	-0.08118214
-3.621648	shafin	-0.1020654
-4.135726	shafinka	-0.08175395
-4.135726	shafinsa	-0.1194359
-3.869188	shagalin	-0.08969063
-4.135726	shago	-0.1268271
-4.135726	shagon	-0.126782
-4.135726	shagulgula	-0.08989742
-4.135726	shahada	-0.08989742
-3.403718	shahara	-0.1294023
-4.135726	shahararen	-0.1268045
-4.02511	shahararren	-0.08914541
-4.135726	shahararriyar	-0.1265338
-3.536275	shaida	-0.08837742
-4.135726	shakar	-0.1268766
-4.02511	shakatawa	-0.06337284
-3.869188	shakka	-0.0856933
-4.135726	shamsiyya	-0.08989742
-3.184237	shan	-0.1616471
-3.869188	shang	-0.08146361
-3.464958	shanghai	-0.1177088
-3.728015	shanu	-0.1401887
-4.135726	shanun	-0.1063739
-4.135726	shaolin	-0.1194359
-4.135726	shar	-0.1235904
-4.02511	sharadin	-0.1252184
-4.02511	share	-0.1867254
-3.869188	sharhi	-0.1319141
-4.02511	sharhin	-0.06748833
-4.135726	sharrudan	-0.1257433
-4.135726	sharuda	-0.1245889
-4.135726	sharuddan	-0.1243395
-3.869188	shawara	-0.2007691
-4.135726	shawara'	-0.08989742
-4.02511	shawarar	-0.06736933
-3.621648	shawarwari	-0.06593939
-3.621648	shawarwarin	-0.1228941
-4.135726	shawarwrin	-0.1267143
-3.869188	shawo	-0.2831908
-4.02511	shayi	-0.06748833
-4.135726	shayin	-0.1194359
-4.135726	shebab	-0.1268496
-3.869188	shehun	-0.2849306
-3.015132	shekara	-0.2507488
-3.25928	shekarar	-0.2803699
-3.039128	shekaru	-0.1904341
-3.869188	shekarun	-0.1002245
-4.135726	shekarunsa	-0.1063739
-4.135726	shekarunsu	-0.09853631
-4.135726	shelanta	-0.1256077
-4.135726	shell	-0.08989742
-4.02511	sheng	-0.1050101
-4.135726	shewa	-0.1266918
-2.304251	shi	-0.3232979
-3.22014	shida	-0.2163175
-3.464958	shidda	-0.09195452
-2.843762	shiga	-0.2019311
-4.135726	shigad	-0.1063739
-3.869188	shigar	-0.06672239
-3.728015	shige	-0.1009257
-4.135726	shigi	-0.1063739
-4.02511	shigo	-0.1996492
-4.02511	shigowar	-0.08973526
-4.135726	shihuang	-0.1253589
-3.536275	shimfida	-0.1501334
-4.135726	shimfidu	-0.08989742
-3.869188	shin	-0.1184158
-4.02511	shinkafa	-0.06748833
-4.02511	shiraz	-0.1831727
-3.869188	shiri	-0.1416615
-3.120271	shirin	-0.06999896
-4.135726	shirinmu	-0.1194359
-4.135726	shirinsa	-0.1194359
-4.135726	shiru	-0.08989742
-3.120271	shirya	-0.06914956
-4.02511	shirye	-0.1261046
-4.135726	shiryen	-0.126782
-4.135726	shisshigi	-0.1245436
-4.02511	shiyoyyi	-0.1996492
-4.02511	shiyya	-0.1248245
-3.728015	shiyyar	-0.1772356
-4.135726	shiyyoyi	-0.1262856
-3.621648	shiyyoyin	-0.1170375
-4.135726	shizhen	-0.08989742
-3.869188	shu	-0.08780512
-3.869188	shudi	-0.1086793
-3.184237	shugaba	-0.1598191
-3.151077	shugaban	-0.239907
-4.135726	shugabanci	-0.1266015
-4.02511	shugabancin	-0.1831727
-3.621648	shugabanni	-0.08337309
-3.536275	shugabannin	-0.241311
-4.02511	shugabanta	-0.1159908
-4.135726	shuke	-0.08989742
-4.02511	shun	-0.1046306
-4.02511	shuni	-0.1243938
-4.135726	shuya	-0.1260371
-4.135726	sichuan	-0.08175395
-4.135726	sida	-0.0959292
-4.02511	siffar	-0.1267458
-3.350055	sifili	-0.2045078
-4.135726	sifiri	-0.08989742
-4.135726	sifofin	-0.1063739
-4.02511	sigar	-0.2197189
-4.135726	sigari	-0.1169516
-4.135726	sikatana	-0.1194129
-4.135726	sila	-0.120787
-3.464958	siliki	-0.09285136
-4.135726	silk	-0.1265113
-4.135726	silva	-0.1194359
-4.135726	simbarashe	-0.1268766
-2.970786	sin	-0.03906988
-3.869188	sinanci	-0.1640157
-3.350055	sinawa	-0.1816732
-4.135726	singapore	-0.1063739
-3.536275	sinima	-0.08294666
-4.02511	siriya	-0.1996492
-4.02511	sirleaf	-0.1226898
-4.135726	sirri	-0.08989742
-4.135726	sisi'	-0.08989742
-3.869188	sittin	-0.09957446
-2.992393	siyasa	-0.3241746
-3.728015	siyasar	-0.1232174
-4.135726	so	-0.1263533
-3.120271	soja	-0.1667127
-4.135726	sojan	-0.1265113
-4.135726	soji	-0.1250646
-4.02511	sojin	-0.1240082
-3.25928	sojoji	-0.130915
-3.064528	sojojin	-0.163761
-3.869188	sojojinsa	-0.05685838
-4.135726	sojojinta	-0.1261275
-4.135726	soke	-0.1268045
-4.135726	soki	-0.1258201
-3.464958	soma	-0.1223244
-4.135726	somalia	-0.1258564
-4.02511	somaliya	-0.06748833
-3.039128	son	-0.09246767
-3.621648	song	-0.05362705
-2.342203	sosai	-0.5027214
-3.869188	soyayya	-0.1598615
-4.02511	spain	-0.1061941
-4.135726	spaniya	-0.120787
-4.135726	sraila	-0.09847366
-4.135726	sri	-0.1268766
-2.327579	su	-0.1252111
-4.135726	subhanahu	-0.1260597
-3.403718	sudan	-0.1332331
-4.02511	sufuri	-0.1996492
-4.02511	sui	-0.1207548
-2.495119	suka	-0.2415133
-3.3023	sukan	-0.1802805
-3.728015	sukari	-0.1077158
-2.950202	suke	-0.1021889
-3.869188	sukuni	-0.08453175
-3.869188	sukuwa	-0.08000929
-4.135726	sukuwar	-0.1268045
-4.135726	sule	-0.1268766
-4.135726	sulemani	-0.1169516
-4.02511	sulhu	-0.1093043
-2.112695	sun	-0.2883583
-2.373016	suna	-0.1792413
-3.536275	sunan	-0.1420896
-4.135726	sunansa	-0.1263984
-4.135726	sunanta	-0.1063739
-4.135726	sunaye	-0.1264887
-4.135726	sunayen	-0.1267143
-4.135726	super	-0.1268766
-4.02511	surar	-0.0897107
-4.135726	suzhen	-0.1236586
-4.135726	swan	-0.120787
-4.135726	switzerland	-0.08989742
-4.135726	syana	-0.1256077
-4.02511	syria	-0.1204988
-1.853999	ta	-0.1214701
-4.135726	ta'ala	-0.1169516
-4.135726	taala	-0.08989742
-3.25928	taba	-0.08757664
-4.135726	tabarbarewa	-0.08989742
-4.135726	tabas	-0.1253589
-4.135726	tabbaci	-0.08737105
-4.135726	tabbacin	-0.1261501
-3.728015	tabbas	-0.1229171
-4.135726	tabbata	-0.1169516
-3.25928	tabbatar	-0.6134748
-3.869188	tabki	-0.1416365
-4.02511	tabkin	-0.1264299
-3.869188	tabo	-0.1632711
-3.869188	tace	-0.126542
-4.02511	tada	-0.08880097
-4.135726	tafarkin	-0.1265338
-4.135726	tafarnuwa	-0.1063739
-4.135726	tafe	-0.1266692
-3.350055	tafi	-0.1564138
-3.621648	tafiya	-0.177143
-3.22014	tafiyar	-0.4321398
-4.135726	tafkawa	-0.1245436
-4.135726	tafki	-0.1169516
-4.135726	tafkin	-0.1268766
-4.135726	tagayyara	-0.1169516
-3.621648	tagulla	-0.1393378
-4.135726	tagwayen	-0.126782
-4.135726	taibei	-0.1261726
-4.02511	taimaka	-0.1259783
-3.728015	taimakawa	-0.1245025
-4.02511	taimake	-0.1663132
-3.350055	taimako	-0.1759232
-3.621648	taimakon	-0.145656
-4.135726	taimakonsa	-0.08989742
-4.135726	taimakonsu	-0.1245889
-4.135726	taimakonta	-0.1245889
-3.120271	taiwan	-0.08933812
-4.135726	tak	-0.1063739
-3.728015	taka	-0.1592883
-4.135726	takaice	-0.1258427
-4.02511	takaita	-0.1252094
-4.135726	takaitaccen	-0.1267369
-4.135726	takalma	-0.1063739
-4.02511	takara	-0.08732165
-4.135726	takarar	-0.1266015
-4.02511	takarda	-0.1235037
-3.869188	takardar	-0.08287307
-4.02511	takardu	-0.08803728
-3.869188	takardun	-0.08940104
-4.135726	takardunku	-0.1265564
-4.02511	takawa	-0.1168454
-3.25928	take	-0.07743933
-4.02511	taken	-0.1059812
-4.135726	takin	-0.1266467
-4.135726	takobi	-0.1194129
-4.02511	takunkumi	-0.08737105
-4.02511	takunkumin	-0.1059102
-4.135726	takwaransa	-0.1194359
-4.135726	takwarorinsa	-0.1194359
-3.3023	takwas	-0.1459994
-4.135726	talata	-0.1063739
-3.536275	talatin	-0.1609108
-3.464958	talauci	-0.08451706
-4.02511	taliban	-0.1461412
-4.135726	talibijin	-0.08989742
-4.135726	talikai	-0.08989742
-4.135726	taliya	-0.08989742
-4.135726	tallafa	-0.1260597
-4.135726	tallafawa	-0.1263307
-4.02511	tallafi	-0.1831727
-4.02511	tamanin	-0.1234858
-3.869188	tambaya	-0.07989365
-4.135726	tambayar	-0.1266241
-4.135726	tambaye	-0.08754387
-4.02511	tambayi	-0.1266238
-3.869188	tambayoyi	-0.1154911
-4.135726	tambayoyin	-0.1063739
-3.621648	tamkar	-0.1227575
-2.65528	tana	-0.1606248
-3.869188	tanada	-0.1010511
-4.135726	tanadar	-0.1268271
-4.02511	tanadi	-0.1831727
-3.728015	tang	-0.04232799
-4.02511	tangaram	-0.07904381
-4.135726	tangaza	-0.1261501
-4.135726	tanti	-0.125879
-4.02511	tanzania	-0.1029661
-4.02511	tao	-0.1159908
-3.3023	tara	-0.06641673
-4.02511	tarar	-0.1063309
-4.02511	tarayya	-0.1193532
-4.02511	tarayyar	-0.1258427
-4.135726	tarbiyya	-0.1145782
-2.65528	tare	-0.6322429
-4.135726	tarho	-0.08989742
-3.064528	tarihi	-0.2849414
-4.135726	tarihi'	-0.1194129
-3.403718	tarihin	-0.07437368
-4.02511	tarihinsa	-0.1118092
-3.869188	tarin	-0.08965154
-4.135726	tarjama	-0.08989742
-4.135726	tarnakin	-0.1063739
-3.350055	taro	-0.09655467
-2.859787	taron	-0.2523255
-4.135726	taru	-0.1268673
-4.02511	taruruka	-0.08175395
-4.135726	tasa	-0.1220656
-4.135726	tasani	-0.126579
-4.135726	tasha	-0.1194359
-3.536275	tashi	-0.1365486
-4.135726	tashoshin	-0.1263984
-3.350055	tasiri	-0.2909256
-4.02511	tasirin	-0.1062414
-4.135726	taso	-0.08989742
-4.135726	tasoshin	-0.1266015
-3.869188	tasowa	-0.09309902
-4.135726	tatsuniya	-0.1234721
-4.135726	tatsuniyar	-0.1220656
-4.135726	tatsuniyoyi	-0.08989742
-4.135726	tatsuniyoyin	-0.08989742
-2.992393	tattalin	-0.5425962
-3.621648	tattara	-0.0869161
-4.135726	tattare	-0.1169516
-3.869188	tattauna	-0.1240172
-3.536275	tattaunawa	-0.1433939
-3.621648	tattaunawar	-0.1393328
-4.135726	taurari	-0.08989742
-4.135726	tauraro	-0.1063739
-4.02511	tauraron	-0.1245525
-3.869188	tausayi	-0.1209881
-4.135726	tausayin	-0.1268766
-4.135726	taushi	-0.08989742
-4.02511	tawagar	-0.1256166
-3.869188	tawaye	-0.05539338
-4.135726	tawayen	-0.1266692
-3.728015	taya	-0.219231
-3.728015	tayar	-0.1803681
-4.135726	tayi	-0.1268766
-4.02511	tebur	-0.1831727
-3.621648	tehran	-0.2976791
-3.25928	teku	-0.1282264
-3.536275	tekun	-0.1096436
-3.728015	ti	-0.1391919
-3.869188	tian	-0.08945497
-4.02511	tianjin	-0.1046306
-3.25928	tibet	-0.1391906
-4.135726	tilas	-0.1235904
-4.02511	tilasta	-0.08958787
-4.135726	tilastawa	-0.1266692
-3.869188	titi	-0.2480235
-4.02511	titin	-0.1176334
-4.135726	tituna	-0.1268045
-4.135726	tiyata	-0.1268045
-4.135726	to	-0.117619
-4.135726	tofa	-0.1268766
-4.02511	togo	-0.08973526
-4.135726	ton	-0.1266692
-4.135726	tongxin	-0.1194359
-4.02511	tono	-0.1074972
-4.135726	tsabar	-0.1264887
-4.135726	tsagaita	-0.1267594
-4.135726	tsageran	-0.1194359
-3.536275	tsai	-0.56553
-4.135726	tsaida	-0.1256077
-4.135726	tsaka	-0.1234996
-2.893729	tsakanin	-0.224738
-4.02511	tsakaninmu	-0.05888302
-4.135726	tsakaninsa	-0.1063739
-3.621648	tsakaninsu	-0.1020047
-3.869188	tsakaninta	-0.2645
-4.02511	tsakar	-0.1264299
-3.621648	tsakiya	-0.123021
-4.02511	tsakiyar	-0.08658993
-4.135726	tsallake	-0.1257207
-4.135726	tsalle	-0.1257207
-4.135726	tsamani	-0.1249061
-4.135726	tsami	-0.1263533
-3.869188	tsammani	-0.1991134
-4.02511	tsammanin	-0.1131996
-3.728015	tsamo	-0.1263076
-4.135726	tsanaki	-0.08462129
-3.621648	tsanani	-0.0993529
-4.135726	tsananin	-0.1268673
-4.135726	tsananni	-0.1259468
-4.135726	tsananta	-0.1257433
-4.135726	tsangwama	-0.1220656
-3.151077	tsara	-0.1351643
-3.621648	tsare	-0.1427557
-3.869188	tsari	-0.07814668
-3.039128	tsarin	-0.1799764
-4.135726	tsarki	-0.1235904
-3.621648	tsaro	-0.1370233
-3.536275	tsaron	-0.1317731
-4.02511	tsauni	-0.1831727
-3.869188	tsaunin	-0.1211083
-3.869188	tsaunuka	-0.06193104
-4.02511	tsaunukan	-0.08986281
-3.869188	tsawo	-0.05501055
-3.120271	tsawon	-0.128689
-3.869188	tsawonsa	-0.1769144
-3.728015	tsaya	-0.1149903
-4.135726	tsayar	-0.1252005
-3.621648	tsayawa	-0.1118833
-3.869188	tsaye	-0.07898305
-3.869188	tsayi	-0.1581919
-4.02511	tsayin	-0.08986281
-4.02511	tsayinsa	-0.2126882
-4.135726	tsayuwar	-0.126263
-4.135726	tseren	-0.08989742
-4.135726	tserewa	-0.1245436
-4.135726	tsibiri	-0.1194359
-4.02511	tsibirin	-0.08172894
-4.135726	tsige	-0.1266241
-3.728015	tsinken	-0.1828632
-3.869188	tsira	-0.1662384
-4.135726	tsirkiyoyi	-0.08322739
-4.135726	tskanin	-0.1267369
-4.135726	tsofaffi	-0.08989742
-4.02511	tsofaffin	-0.1250962
-3.869188	tsoffin	-0.08954322
-4.02511	tsoho	-0.08894862
-3.3023	tsohon	-0.2139113
-4.135726	tsohuwa	-0.08989742
-3.728015	tsohuwar	-0.08516256
-4.135726	tsoma	-0.1266241
-4.135726	tsoro	-0.1249288
-3.869188	tsoron	-0.1228809
-4.135726	tsufa	-0.08989742
-4.135726	tsugunar	-0.1063739
-4.135726	tsunduma	-0.1245436
-3.869188	tsuntsaye	-0.1078984
-4.02511	tsuntsu	-0.1235313
-4.135726	tsvangirai	-0.1194129
-4.135726	tu	-0.08989742
-3.621648	tuddai	-0.05004955
-3.869188	tudu	-0.1209195
-4.02511	tudun	-0.1831727
-4.135726	tufa	-0.1063739
-4.02511	tufaffi	-0.05605238
-3.728015	tufafi	-0.1467439
-4.02511	tufafin	-0.1261228
-4.135726	tufan	-0.1169516
-4.135726	tuhume	-0.1247475
-4.02511	tukuna	-0.1235086
-4.135726	tukunya	-0.08973526
-4.135726	tukunyar	-0.1267594
-4.135726	tukuru	-0.08989742
-4.02511	tukwane	-0.2167749
-4.135726	tumaki	-0.1045594
-4.135726	tumatir	-0.1063739
-3.22014	tun	-0.2076529
-3.869188	tuna	-0.1273959
-3.464958	tunani	-0.1446773
-3.536275	tunanin	-0.1170916
-4.02511	tunaninsa	-0.1158983
-3.728015	tunawa	-0.1078201
-4.135726	tunda	-0.1265113
-4.135726	tuni	-0.1265113
-4.135726	tunisiya	-0.126579
-4.135726	tunkiya	-0.08989742
-4.135726	tuntube	-0.1263984
-4.135726	tuntubi	-0.1266467
-4.135726	tuo	-0.1252457
-4.135726	tuo'	-0.1247475
-3.728015	tura	-0.1704236
-3.728015	turai	-0.1607636
-4.02511	turanci	-0.0861841
-4.135726	turawa	-0.1255172
-4.135726	turawan	-0.1255172
-4.135726	turkiya	-0.120787
-3.728015	tushe	-0.2288475
-4.135726	tushen	-0.08983349
-4.02511	tuta	-0.0861841
-4.135726	tutar	-0.08989742
-4.135726	tutocin	-0.1265338
-4.135726	twitte	-0.08989742
-4.135726	u	-0.1220242
-4.02511	ubangiji	-0.08172894
-4.135726	ubangijinka	-0.08989742
-4.135726	ubanta	-0.1268496
-3.728015	uganda	-0.1336178
-4.135726	ugandan	-0.1257207
-4.135726	uhammad	-0.1249061
-4.135726	uk	-0.1063739
-2.843762	uku	-0.1389345
-4.135726	umunai	-0.1194359
-4.02511	umurni	-0.1673377
-3.869188	umurnin	-0.08566339
-4.135726	una	-0.1259468
-4.135726	unan	-0.1268271
-4.135726	unguwar	-0.08989742
-4.135726	unicef	-0.1063739
-4.135726	uniya	-0.1262719
-4.02511	uranium	-0.06748833
-4.135726	utane	-0.1268766
-4.135726	utumin	-0.1194129
-4.02511	uwa	-0.0849738
-4.135726	uwan	-0.1267594
-4.135726	uwanmu	-0.1194359
-3.869188	uwar	-0.1698318
-4.135726	uwayen	-0.1267369
-3.869188	uygur	-0.06537366
-4.135726	venezuela	-0.08989742
-4.135726	vienna	-0.1194359
-4.02511	vietnam	-0.1048061
-2.709497	wa	-0.1008767
-4.135726	wacce	-0.1266692
-4.02511	wace	-0.1251958
-4.135726	wadai	-0.1063739
-4.135726	wadan	-0.1063739
-2.771461	wadanda	-0.3632814
-3.015132	wadannan	-0.1878925
-4.135726	wadannnan	-0.1264661
-4.135726	wadansu	-0.1248698
-3.728015	wadata	-0.1233389
-4.02511	wadatuwa	-0.1831727
-3.3023	wadda	-0.177612
-3.869188	wahala	-0.1222661
-3.728015	wahaloli	-0.1535458
-4.135726	wai	-0.1259468
-4.135726	waina	-0.1258112
-4.135726	waiwaya	-0.08989742
-4.135726	waiwayen	-0.1268766
-4.02511	waiwayi	-0.1245525
-4.135726	wajaba	-0.1260823
-3.3023	waje	-0.1106631
-2.448379	wajen	-0.1708925
-3.869188	wajensa	-0.08448203
-3.728015	wajibi	-0.4066553
-3.350055	waka	-0.103068
-3.403718	wakar	-0.1057741
-3.728015	wake	-0.09002428
-4.02511	wakilai	-0.1194035
-3.621648	wakilan	-0.1089331
-4.135726	wakilansa	-0.1257207
-4.135726	wakilci	-0.1169516
-4.02511	wakili	-0.1238493
-3.728015	wakilin	-0.1263345
-4.02511	wakilinmu	-0.1180896
-4.135726	wakiliyar	-0.08975982
-4.135726	wakiliyarmu	-0.1169516
-4.135726	wakiltar	-0.08989742
-3.3023	wakoki	-0.11386
-3.350055	wakokin	-0.1786677
-4.135726	wakokinsa	-0.1063739
-4.02511	walkiya	-0.1831727
-3.728015	wallafa	-0.1125644
-4.02511	wan	-0.2184758
-3.728015	wancan	-0.1178059
-2.698099	wanda	-0.354008
-3.728015	wane	-0.1214143
-4.135726	wanensu	-0.1194129
-3.869188	wang	-0.1257771
-2.394843	wani	-0.1550564
-4.02511	wanka	-0.06748833
-4.135726	wanke	-0.1268496
-4.02511	wanna	-0.1267007
-2.337274	wannan	-0.1215128
-4.135726	wanzar	-0.1063739
-3.869188	ware	-0.08493912
-4.135726	wargaza	-0.1265338
-4.135726	wariyar	-0.1267594
-3.621648	warkar	-0.2925613
-4.02511	warke	-0.08961244
-3.728015	warware	-0.1260592
-3.22014	wasa	-0.1881379
-3.015132	wasan	-0.2537073
-3.728015	wasanni	-0.1125711
-3.091506	wasannin	-0.2783398
-4.135726	wasika	-0.1257207
-4.135726	wasikun	-0.08989742
-3.728015	wassu	-0.1306045
-2.859787	wasu	-0.1529976
-2.635356	wata	-0.1518703
-4.135726	watakila	-0.1259242
-3.403718	watan	-0.1528721
-3.869188	watanni	-0.1698091
-4.135726	watau	-0.1266918
-2.771461	wato	-0.05895172
-4.02511	watsa	-0.1242668
-4.135726	watsawa	-0.120787
-4.02511	watsi	-0.1996492
-4.02511	waya	-0.0861841
-3.621648	wayar	-0.1342959
-4.135726	wayewa	-0.1259016
-4.02511	wayewar	-0.08882558
-3.869188	wayin	-0.1487331
-3.869188	wayo	-0.1222433
-4.135726	wayoyin	-0.1268673
-3.869188	wei	-0.06358786
-3.536275	wen	-0.3151639
-4.135726	white	-0.1268766
-4.135726	widget	-0.1267369
-3.621648	wu	-0.1779902
-3.536275	wuce	-0.09614383
-4.135726	wuhan	-0.08989742
-4.02511	wuka	-0.1045831
-4.135726	wukake	-0.08989742
-3.184237	wurare	-0.1589187
-3.403718	wuraren	-0.1684902
-3.350055	wuri	-0.1702852
-2.970786	wurin	-0.1613601
-4.135726	wurjanjan	-0.08989742
-3.464958	wuta	-0.07818535
-3.25928	wutar	-0.2914584
-3.728015	wuya	-0.07382553
-3.869188	wuyansa	-0.1327767
-4.135726	xia	-0.08989742
-4.135726	xiang	-0.1194129
-4.135726	xin	-0.1194129
-4.02511	xinjiang	-0.1273959
-4.135726	xu	-0.1268673
-4.135726	xuan	-0.1268766
-1.766732	ya	-0.3260234
-3.728015	yaba	-0.1237083
-4.135726	yabawa	-0.1264436
-3.350055	yabo	-0.116238
-3.728015	yace	-0.08364554
-3.536275	yada	-0.144174
-2.828307	yadda	-0.2761209
-4.135726	yadu	-0.08989742
-3.728015	yaduwa	-0.1379412
-4.135726	yaduwar	-0.08989742
-4.135726	yah	-0.1268766
-4.135726	yahudawa	-0.123545
-3.869188	yakan	-0.1253542
-4.135726	yakasai	-0.1268766
-3.184237	yake	-0.05511449
-3.064528	yaki	-0.3172205
-3.3023	yakin	-0.08570198
-4.02511	yakini	-0.08737105
-4.135726	yaks	-0.1169516
-4.135726	yalwa	-0.1093043
-3.728015	yalwata	-0.176276
-3.869188	yalwatuwa	-0.1273959
-4.135726	yaman	-0.08989742
-4.135726	yamen	-0.123545
-3.464958	yamma	-0.1703867
-4.135726	yammaci	-0.1255172
-3.728015	yammacin	-0.1458741
-3.869188	yan	-0.1251505
-2.417826	yana	-0.2294706
-3.621648	yanayi	-0.07663471
-3.464958	yanayin	-0.08826657
-4.135726	yanchi	-0.08989742
-4.135726	yanci	-0.1259468
-3.728015	yang	-0.2255944
-4.135726	yangang	-0.1247475
-4.135726	yangtse	-0.0888994
-4.135726	yanka	-0.08989742
-3.536275	yanke	-0.1492667
-4.135726	yankewa	-0.1263081
-3.536275	yanki	-0.1539547
-3.120271	yankin	-0.2342927
-4.135726	yankuna	-0.1063739
-3.464958	yankunan	-0.1345135
-4.135726	yanyi	-0.1063739
-3.728015	yanzi	-0.1346685
-2.893729	yanzu	-0.1265138
-3.728015	yao	-0.2316821
-4.02511	yar	-0.08968614
-3.151077	yara	-0.1417637
-3.728015	yaran	-0.1803681
-4.135726	yaranmu	-0.1261726
-3.350055	yarda	-0.2843472
-4.135726	yare	-0.08989742
-4.135726	yaren	-0.1268496
-4.135726	yarima	-0.08989742
-3.621648	yarinya	-0.09301978
-4.02511	yarinyar	-0.1273959
-4.135726	yarje	-0.1260597
-3.869188	yarjejeniyar	-0.0889584
-4.135726	yarjejeniyoyi	-0.08989742
-4.135726	yarjejeniyoyin	-0.1063739
-3.869188	yaro	-0.1221841
-3.25928	yau	-0.1776569
-4.135726	yauki	-0.1063739
-4.135726	yaushe	-0.1268766
-3.350055	yawa	-0.07609339
-2.970786	yawan	-0.1839816
-3.464958	yawancin	-0.200271
-3.728015	yawancinsu	-0.08244869
-4.135726	yawansa	-0.1184346
-3.621648	yawansu	-0.2919233
-4.02511	yawo	-0.07904381
-3.350055	yawon	-0.5918886
-4.135726	yawun	-0.1266467
-3.464958	yaya	-0.1501882
-4.135726	yayata	-0.1264887
-3.25928	yayin	-0.5409241
-2.676162	yi	-0.08071028
-4.135726	yijin	-0.1063739
-2.572046	yin	-0.203424
-4.135726	ying	-0.1194129
-4.135726	yiwuwa	-0.1235904
-4.135726	yiwuwar	-0.1259016
-4.135726	yola	-0.08848087
-4.135726	yolar	-0.1063739
-4.02511	you	-0.1776289
-3.728015	yu	-0.05725558
-3.464958	yuan	-0.08242827
-4.135726	yuanxiao	-0.08989742
-4.135726	yuanzhang	-0.1247475
-4.135726	yuli	-0.08989742
-4.135726	yumbu	-0.08989742
-4.135726	yun	-0.08989742
-3.869188	yunkurin	-0.08937646
-4.135726	yunnan	-0.1063739
-4.02511	yunwa	-0.1168915
-4.02511	yusuf	-0.1268178
-2.448379	za	-0.9134554
-4.135726	za'a	-0.1259919
-4.135726	zab'e	-0.08989742
-3.869188	zaba	-0.146265
-3.464958	zabe	-0.1127662
-3.536275	zaben	-0.0882288
-3.621648	zabi	-0.1235033
-3.621648	zafi	-0.1013474
-4.135726	zafin	-0.1268045
-4.135726	zaga	-0.1249061
-4.02511	zagaye	-0.1168454
-2.65528	zai	-0.2876837
-4.135726	zaizayewar	-0.1263984
-3.728015	zaka	-0.1255441
-4.135726	zakara	-0.1220656
-3.869188	zaki	-0.0625901
-4.135726	zaku	-0.1266467
-4.02511	zalika	-0.09227702
-2.876427	zama	-0.1399484
-2.758341	zaman	-0.3256054
-3.22014	zamani	-0.1968747
-3.151077	zamanin	-0.3382077
-4.135726	zamanni	-0.1063739
-3.869188	zamansa	-0.1758059
-4.135726	zamanta	-0.1169516
-4.02511	zamantakewa	-0.08951417
-3.869188	zamantakewar	-0.1497603
-4.02511	zambia	-0.06056157
-4.135726	zambiya	-0.1250736
-4.135726	zamfara	-0.1194359
-3.728015	zamu	-0.1251049
-3.403718	zan	-0.1204887
-3.464958	zana	-0.1138493
-4.135726	zance	-0.1194129
-3.25928	zane	-0.2130844
-3.536275	zanen	-0.1034293
-4.135726	zang	-0.1063739
-4.135726	zanga	-0.1268766
-4.135726	zangar	-0.1264887
-4.135726	zango	-0.1169516
-4.135726	zanguna	-0.1259468
-4.02511	zantawa	-0.1996492
-4.135726	zarafi	-0.08989742
-4.135726	zaranda	-0.1268766
-4.135726	zarar	-0.07623542
-4.02511	zarce	-0.1251642
-3.869188	zare	-0.07656466
-4.135726	zaren	-0.1267594
-4.02511	zargi	-0.08926836
-4.02511	zargin	-0.1264118
-4.135726	zaria	-0.1266015
-4.02511	zartas	-0.1996492
-4.135726	zasu	-0.1262856
-4.02511	zata	-0.1257749
-4.135726	zato	-0.1220656
-4.02511	zauna	-0.2102269
-4.02511	zaunannen	-0.1260912
-3.536275	zaune	-0.2574899
-4.135726	zauren	-0.1246432
-3.869188	zazzabin	-0.1866308
-4.135726	zemin	-0.1194129
-4.02511	zhang	-0.08978438
-4.135726	zhangzhou	-0.1194359
-3.621648	zhao	-0.1284552
-4.135726	zheng	-0.1194129
-4.135726	zhenlin	-0.1194129
-4.135726	zhi	-0.08989742
-4.135726	zhou	-0.1268766
-4.135726	zhu	-0.1194129
-4.02511	zhuang	-0.1182368
-4.135726	zhumadian	-0.1194359
-4.02511	zimbabuwe	-0.09995398
-3.869188	zimbabwe	-0.08054636
-3.869188	zinari	-0.1416365
-3.728015	zinariya	-0.1397228
-4.135726	zirga	-0.1268766
-4.135726	zirgar	-0.1268496
-3.350055	ziyara	-0.2151129
-3.536275	ziyarar	-0.1489847
-3.728015	ziyararsa	-0.1541323
-4.02511	ziyarci	-0.1329244
-3.184237	zo	-0.09707222
-3.091506	zuba	-0.362705
-4.02511	zubar	-0.06748833
-3.621648	zuciya	-0.1382343
-4.135726	zuciyar	-0.1266692
-4.02511	zuciyarsa	-0.1831727
-4.135726	zuciyata	-0.08989742
-4.135726	zuhur	-0.08989742
-4.135726	zukatansu	-0.08989742
-4.135726	zumudi	-0.1249288
-3.869188	zumunci	-0.1001907
-3.869188	zumuncin	-0.166078
-4.135726	zumunta	-0.06748833
-4.135726	zumuntar	-0.1063739
-4.135726	zungur	-0.08322739
-3.728015	zura	-0.1265651
-4.135726	zurfafa	-0.1267684
-4.02511	zurfi	-0.0848483
-4.02511	zurfin	-0.2198994
-4.02511	zuriya	-0.1244619
-4.135726	zuriyoyi	-0.08989742
-2.56371	zuwa	-0.1714649
-4.135726	zuwan	-0.125603

\2-grams:
-0.5962042	'dan adam
-0.5962042	'japanawa dukkansu
-0.5962042	'mutum mutumin
-1.387251	'yan </s>
-1.764795	'yan adam
-2.520483	'yan addinin
-1.764795	'yan amshi	-0.04270533
-2.520483	'yan bindiga	-0.03596175
-2.520483	'yan di
-2.023699	'yan fasaha	-0.01469235
-2.520483	'yan fashi
-2.520483	'yan gani
-2.520483	'yan gudun
-2.520483	'yan ilimi
-2.520483	'yan iyali
-2.023699	'yan iyalinsa
-2.520483	'yan jaridar
-2.520483	'yan jaridun
-1.276532	'yan kabilar	-0.006310083
-2.520483	'yan kai
-2.023699	'yan kallo
-2.520483	'yan kananan
-2.520483	'yan kasa
-2.520483	'yan kasar
-2.520483	'yan kasarta	-0.1040351
-1.764795	'yan kasuwa
-2.023699	'yan kimiyya	0.06609069
-2.520483	'yan koyo
-2.520483	'yan kwallonshi
-2.520483	'yan kwanakin
-2.023699	'yan majalisar	-0.1295806
-2.520483	'yan makaranta
-1.536227	'yan mata	0.01281001
-2.520483	'yan matan
-2.520483	'yan mulkin
-2.520483	'yan sa'o'i
-2.023699	'yan sanda
-2.023699	'yan sandan
-2.520483	'yan shekaru
-1.764795	'yan shekarun	-0.2408477
-2.520483	'yan siyasar
-1.536227	'yan tawaye	-0.03929701
-1.764795	'yan uwa
-2.520483	'yan uwanmu
-1.276532	'yan wasa	0.07215095
-1.387251	'yan wasan	0.02200301
-0.5962042	'yan'uwa da
-0.5962042	'yancin da
-0.5962042	'yansanda a
-0.8972343	'yar kabilar
-0.8972343	'yar kallo
-0.5962042	'yaranmu na
-0.5962042	'zai baiwa
-4.364324	<s> 'japanawa
-4.364324	<s> 'mutum
-2.345797	<s> 'yan	-0.08444671
-4.364324	<s> 'yan'uwa
-4.364324	<s> 'yaranmu
-4.364324	<s> 'zai
-1.311081	<s> a	-0.1501608
-3.608636	<s> abin	-0.03877586
-4.364324	<s> abinda
-3.86754	<s> abu
-3.231092	<s> abubuwa	-0.001726292
-3.380068	<s> abubuwan	0.1433166
-4.364324	<s> abun
-3.608636	<s> addinai
-4.364324	<s> addinan
-2.958983	<s> addinin	-0.07866857
-3.380068	<s> ado	-0.05986588
-3.608636	<s> afirka
-4.364324	<s> ahmadi
-3.86754	<s> aikata	-0.1344482
-3.120373	<s> aiki	-0.05185085
-2.749264	<s> aikin	-0.02218958
-4.364324	<s> aikinsa
-4.364324	<s> aiko
-4.364324	<s> ainun
-4.364324	<s> aiwatar
-4.364324	<s> ajin
-2.526481	<s> aka	-0.1583572
-4.364324	<s> akan
-3.032224	<s> ake	-0.03834992
-4.364324	<s> akingbola
-2.749264	<s> akwai	-0.007843446
-4.364324	<s> al
-4.364324	<s> al'amarin
-4.364324	<s> alaka
-3.608636	<s> alal	-0.08435871
-4.364324	<s> alamar
-4.364324	<s> alex
-4.364324	<s> aliki
-4.364324	<s> alkahira
-3.120373	<s> allah	-0.08394907
-4.364324	<s> allurar
-4.364324	<s> almubazzaranci
-3.380068	<s> ambaliyar	-0.06608671
-4.364324	<s> amerika
-3.032224	<s> amfani	-0.1816937
-4.364324	<s> amfanin
-4.364324	<s> aminai
-2.074009	<s> amma	-0.1040315
-4.364324	<s> amsa
-4.364324	<s> amsoshin
-3.380068	<s> amurka	-0.02439598
-1.879134	<s> an	-0.05857368
-2.314133	<s> ana	-0.04488404
-4.364324	<s> anan
-3.608636	<s> annabi	0.08494766
-4.364324	<s> anzu
-4.364324	<s> araha
-4.364324	<s> arewa
-3.231092	<s> arziki	-0.2083597
-3.380068	<s> arzikin	-0.02836486
-4.364324	<s> ashe
-4.364324	<s> asiya
-4.364324	<s> asu
-4.364324	<s> augusta
-4.364324	<s> auren
-3.608636	<s> ayan	-0.0912399
-4.364324	<s> ayin
-4.364324	<s> ayyuka
-3.86754	<s> ayyukan
-1.914156	<s> ba	-0.05376889
-3.86754	<s> baba
-2.526481	<s> babban	-0.01487009
-3.608636	<s> babbar
-3.380068	<s> babu
-2.67317	<s> bai	-0.04022846
-4.364324	<s> baje
-3.380068	<s> bakin
-4.364324	<s> bakinsa
-4.364324	<s> bakwai
-2.55212	<s> ban	-0.7714108
-3.86754	<s> banda	-0.03596175
-3.86754	<s> bang
-3.608636	<s> bangaren	-0.08552763
-4.364324	<s> bangarori
-4.364324	<s> bangarorin
-4.364324	<s> bangon
-4.364324	<s> bao
-3.86754	<s> barack	-0.03596175
-3.86754	<s> bari
-4.364324	<s> basu
-4.364324	<s> batu
-3.380068	<s> batun
-3.032224	<s> baya
